network unknown {
}
variable Bilingue {
    type discrete [ 2 ] { 0, 1 };
}
variable Calendario {
    type discrete [ 3 ] { 0, 1, 2 };
}
variable Computador {
    type discrete [ 2 ] { 0, 1 };
}
variable Departamento_Est {
    type discrete [ 33 ] { 0, 1, 2, 3, 4, 5, 6, 7, 8, 9, 10, 11, 12, 13, 14, 15, 16, 17, 18, 19, 20, 21, 22, 23, 24, 25, 26, 27, 28, 29, 30, 31, 32 };
}
variable Estrato {
    type discrete [ 7 ] { 1, 2, 3, 4, 5, 6, 7 };
}
variable Genero {
    type discrete [ 2 ] { 0, 1 };
}
variable Genero_Colegio {
    type discrete [ 3 ] { 0, 1, 2 };
}
variable Jornada {
    type discrete [ 6 ] { 0, 1, 2, 3, 4, 5 };
}
variable Periodo {
    type discrete [ 2 ] { 0, 1 };
}
variable Puntaje {
    type discrete [ 4 ] { 0, 1, 2, 3 };
}
probability ( Bilingue | Estrato ) {
    ( 1 ) 0.9857629392641519, 0.014237060735848083;
    ( 2 ) 0.9915555555555555, 0.008444444444444444;
    ( 3 ) 0.9907668783815573, 0.00923312161844272;
    ( 4 ) 0.9689374591673101, 0.03106254083268991;
    ( 5 ) 0.9081232004188117, 0.09187679958118838;
    ( 6 ) 0.803444278854115, 0.19655572114588507;
    ( 7 ) 1.0, 0.0;

}
probability ( Calendario ) {
    table 0.9799577235772358, 0.015255284552845529, 0.0047869918699186996 ;
}
probability ( Computador | Estrato ) {
    ( 1 ) 0.6499870994375355, 0.35001290056246454;
    ( 2 ) 0.3865213675213675, 0.6134786324786324;
    ( 3 ) 0.2158021641966596, 0.7841978358033403;
    ( 4 ) 0.1647858882223674, 0.8352141117776326;
    ( 5 ) 0.18890149201640347, 0.8110985079835965;
    ( 6 ) 0.22685875144891537, 0.7731412485510846;
    ( 7 ) 0.75, 0.25;

}
probability ( Departamento_Est ) {
    table 0.0010926829268292683, 0.13822276422764226, 0.00627479674796748, 0.05747967479674797, 0.15966829268292682, 0.041951219512195125, 0.033926829268292685, 0.020977235772357723, 0.007915447154471544, 0.01088130081300813, 0.02216422764227642, 0.023814634146341464, 0.007538211382113821, 0.03303089430894309, 0.06491056910569105, 0.00033983739837398376, 0.0015674796747967479, 0.024372357723577237, 0.0128130081300813, 0.026185365853658535, 0.021723577235772357, 0.030515447154471544, 0.030177235772357723, 0.006508943089430895, 0.012396747967479674, 0.021146341463414636, 0.0013121951219512195, 0.04895284552845528, 0.01872520325203252, 0.031739837398373986, 0.08057235772357724, 0.00036422764227642276, 0.0007382113821138212 ;
}
probability ( Estrato ) {
    table 0.31510569105691055, 0.3804878048780488, 0.22119024390243902, 0.054754471544715445, 0.01863577235772358, 0.00981951219512195, 6.5040650406504065e-06 ;
}
probability ( Genero ) {
    table 0.5464227642276422, 0.4535772357723577 ;
}
probability ( Genero_Colegio | Departamento_Est ) {
    ( 0 ) 0.0, 0.0, 1.0;
    ( 1 ) 0.04139659086898726, 0.005940687237521616, 0.9526627218934911;
    ( 2 ) 0.021249028245659496, 0.0, 0.9787509717543404;
    ( 3 ) 0.0872984441301273, 0.0015841584158415843, 0.9111173974540311;
    ( 4 ) 0.04738482219235, 0.02543891808220294, 0.927176259725447;
    ( 5 ) 0.013062015503875968, 0.021395348837209303, 0.9655426356589147;
    ( 6 ) 0.01950635034747184, 0.005942966690630242, 0.974550682961898;
    ( 7 ) 0.03503604371754128, 0.034415936749089215, 0.9305480195333695;
    ( 8 ) 0.04601479046836483, 0.0, 0.9539852095316351;
    ( 9 ) 0.0, 0.0, 1.0;
    ( 10 ) 0.04489765974616682, 0.010123982099625853, 0.9449783581542073;
    ( 11 ) 0.0, 0.0, 1.0;
    ( 12 ) 0.031061259706643658, 0.0, 0.9689387402933564;
    ( 13 ) 0.004528896327655804, 0.0, 0.9954711036723441;
    ( 14 ) 0.008066132264529059, 0.006437875751503006, 0.985495991983968;
    ( 15 ) 0.0, 0.0, 1.0;
    ( 16 ) 0.0, 0.0, 1.0;
    ( 17 ) 0.006938421509106678, 0.008072586563479886, 0.9849889919274134;
    ( 18 ) 0.014467005076142132, 0.0, 0.9855329949238578;
    ( 19 ) 0.02608047690014903, 0.005216095380029807, 0.9687034277198212;
    ( 20 ) 0.0, 0.0, 1.0;
    ( 21 ) 0.05056748547983162, 0.0, 0.9494325145201684;
    ( 22 ) 0.03195215259442858, 0.035670025324640336, 0.9323778220809311;
    ( 23 ) 0.02448163877092181, 0.0, 0.9755183612290782;
    ( 24 ) 0.014690451206715634, 0.0, 0.9853095487932844;
    ( 25 ) 0.05751633986928104, 0.011226451364859669, 0.9312572087658593;
    ( 26 ) 0.0, 0.0, 1.0;
    ( 27 ) 0.010861622267986449, 0.00099647910715472, 0.9881418986248588;
    ( 28 ) 0.0, 0.0, 1.0;
    ( 29 ) 0.03524590163934426, 0.00010245901639344262, 0.9646516393442623;
    ( 30 ) 0.014530190506942202, 0.004883758475944462, 0.9805860510171134;
    ( 31 ) 0.0, 0.0, 1.0;
    ( 32 ) 0.0, 0.0, 1.0;

}
probability ( Jornada | Estrato ) {
    ( 1 ) 0.08885391403065174, 0.530780742040353, 0.06421383972341194, 0.07219154755147325, 0.11476856390938645, 0.12919139274472366;
    ( 2 ) 0.14020940170940172, 0.48114957264957264, 0.0606025641025641, 0.054995726495726496, 0.12407692307692307, 0.13896581196581195;
    ( 3 ) 0.2459715361091508, 0.43764702422959306, 0.0493707362973418, 0.03727799341331452, 0.10798194542460597, 0.12175076452599388;
    ( 4 ) 0.43333135356654984, 0.3592088851933242, 0.04184237096869989, 0.030112252776622914, 0.062243867672388195, 0.07326126982241492;
    ( 5 ) 0.49637902451793037, 0.3154175028357037, 0.04231742430852456, 0.0360352499781869, 0.055318035075473344, 0.054532763284181135;
    ( 6 ) 0.5555555555555556, 0.250869349230005, 0.057956615333664516, 0.04851796655075344, 0.0445437986421593, 0.04255671468786223;
    ( 7 ) 0.0, 1.0, 0.0, 0.0, 0.0, 0.0;

}
probability ( Periodo ) {
    table 0.9855073170731707, 0.014492682926829268 ;
}
probability ( Puntaje | Bilingue, Calendario, Computador, Genero, Genero_Colegio, Jornada, Periodo ) {
    ( 0, 0, 0, 0, 0, 0, 0 ) 0.0, 0.2986425339366516, 0.6923076923076923, 0.00904977375565611;
    ( 0, 0, 0, 0, 0, 0, 1 ) 0.25, 0.25, 0.25, 0.25;
    ( 0, 0, 0, 0, 0, 1, 0 ) 0.0, 0.4233576642335766, 0.572992700729927, 0.0036496350364963502;
    ( 0, 0, 0, 0, 0, 1, 1 ) 0.25, 0.25, 0.25, 0.25;
    ( 0, 0, 0, 0, 0, 2, 0 ) 0.0, 0.7837837837837838, 0.21621621621621623, 0.0;
    ( 0, 0, 0, 0, 0, 2, 1 ) 0.25, 0.25, 0.25, 0.25;
    ( 0, 0, 0, 0, 0, 3, 0 ) 0.25, 0.25, 0.25, 0.25;
    ( 0, 0, 0, 0, 0, 3, 1 ) 0.25, 0.25, 0.25, 0.25;
    ( 0, 0, 0, 0, 0, 4, 0 ) 0.0, 0.5524475524475524, 0.44755244755244755, 0.0;
    ( 0, 0, 0, 0, 0, 4, 1 ) 0.25, 0.25, 0.25, 0.25;
    ( 0, 0, 0, 0, 0, 5, 0 ) 0.0, 0.31794871794871793, 0.6820512820512821, 0.0;
    ( 0, 0, 0, 0, 0, 5, 1 ) 0.25, 0.25, 0.25, 0.25;
    ( 0, 0, 0, 0, 1, 0, 0 ) 0.0, 0.5813953488372093, 0.3953488372093023, 0.023255813953488372;
    ( 0, 0, 0, 0, 1, 0, 1 ) 0.25, 0.25, 0.25, 0.25;
    ( 0, 0, 0, 0, 1, 1, 0 ) 0.0, 0.7090909090909091, 0.2909090909090909, 0.0;
    ( 0, 0, 0, 0, 1, 1, 1 ) 0.25, 0.25, 0.25, 0.25;
    ( 0, 0, 0, 0, 1, 2, 0 ) 0.0, 0.8571428571428571, 0.14285714285714285, 0.0;
    ( 0, 0, 0, 0, 1, 2, 1 ) 0.25, 0.25, 0.25, 0.25;
    ( 0, 0, 0, 0, 1, 3, 0 ) 0.25, 0.25, 0.25, 0.25;
    ( 0, 0, 0, 0, 1, 3, 1 ) 0.25, 0.25, 0.25, 0.25;
    ( 0, 0, 0, 0, 1, 4, 0 ) 0.0, 0.0, 1.0, 0.0;
    ( 0, 0, 0, 0, 1, 4, 1 ) 0.25, 0.25, 0.25, 0.25;
    ( 0, 0, 0, 0, 1, 5, 0 ) 0.0, 0.7857142857142857, 0.21428571428571427, 0.0;
    ( 0, 0, 0, 0, 1, 5, 1 ) 0.25, 0.25, 0.25, 0.25;
    ( 0, 0, 0, 0, 2, 0, 0 ) 0.0, 0.5863167475728155, 0.41155946601941745, 0.00212378640776699;
    ( 0, 0, 0, 0, 2, 0, 1 ) 0.0, 1.0, 0.0, 0.0;
    ( 0, 0, 0, 0, 2, 1, 0 ) 5.824281429278663e-05, 0.6523923235970762, 0.3471708552957279, 0.0003785782929031131;
    ( 0, 0, 0, 0, 2, 1, 1 ) 0.0, 0.5, 0.5, 0.0;
    ( 0, 0, 0, 0, 2, 2, 0 ) 0.0001755001755001755, 0.9159354159354159, 0.08388908388908389, 0.0;
    ( 0, 0, 0, 0, 2, 2, 1 ) 0.0, 0.8461538461538461, 0.15384615384615385, 0.0;
    ( 0, 0, 0, 0, 2, 3, 0 ) 0.00032948929159802305, 0.9238056013179572, 0.07586490939044481, 0.0;
    ( 0, 0, 0, 0, 2, 3, 1 ) 0.0, 0.7575757575757576, 0.24242424242424243, 0.0;
    ( 0, 0, 0, 0, 2, 4, 0 ) 0.0, 0.6806785580641137, 0.3186977672446052, 0.0006236746912810278;
    ( 0, 0, 0, 0, 2, 4, 1 ) 0.0, 0.9, 0.1, 0.0;
    ( 0, 0, 0, 0, 2, 5, 0 ) 0.0, 0.6204968212856133, 0.37914998822698376, 0.0003531904874028726;
    ( 0, 0, 0, 0, 2, 5, 1 ) 0.25, 0.25, 0.25, 0.25;
    ( 0, 0, 0, 1, 0, 0, 0 ) 0.0, 0.2727272727272727, 0.7272727272727273, 0.0;
    ( 0, 0, 0, 1, 0, 0, 1 ) 0.25, 0.25, 0.25, 0.25;
    ( 0, 0, 0, 1, 0, 1, 0 ) 0.0, 0.6724137931034483, 0.3275862068965517, 0.0;
    ( 0, 0, 0, 1, 0, 1, 1 ) 0.25, 0.25, 0.25, 0.25;
    ( 0, 0, 0, 1, 0, 2, 0 ) 0.0, 0.6551724137931034, 0.3448275862068966, 0.0;
    ( 0, 0, 0, 1, 0, 2, 1 ) 0.25, 0.25, 0.25, 0.25;
    ( 0, 0, 0, 1, 0, 3, 0 ) 0.25, 0.25, 0.25, 0.25;
    ( 0, 0, 0, 1, 0, 3, 1 ) 0.25, 0.25, 0.25, 0.25;
    ( 0, 0, 0, 1, 0, 4, 0 ) 0.0, 1.0, 0.0, 0.0;
    ( 0, 0, 0, 1, 0, 4, 1 ) 0.25, 0.25, 0.25, 0.25;
    ( 0, 0, 0, 1, 0, 5, 0 ) 0.0, 1.0, 0.0, 0.0;
    ( 0, 0, 0, 1, 0, 5, 1 ) 0.0, 1.0, 0.0, 0.0;
    ( 0, 0, 0, 1, 1, 0, 0 ) 0.0, 0.425, 0.575, 0.0;
    ( 0, 0, 0, 1, 1, 0, 1 ) 0.25, 0.25, 0.25, 0.25;
    ( 0, 0, 0, 1, 1, 1, 0 ) 0.0, 0.4731182795698925, 0.5268817204301075, 0.0;
    ( 0, 0, 0, 1, 1, 1, 1 ) 0.25, 0.25, 0.25, 0.25;
    ( 0, 0, 0, 1, 1, 2, 0 ) 0.0, 0.6, 0.4, 0.0;
    ( 0, 0, 0, 1, 1, 2, 1 ) 0.25, 0.25, 0.25, 0.25;
    ( 0, 0, 0, 1, 1, 3, 0 ) 0.25, 0.25, 0.25, 0.25;
    ( 0, 0, 0, 1, 1, 3, 1 ) 0.25, 0.25, 0.25, 0.25;
    ( 0, 0, 0, 1, 1, 4, 0 ) 0.0, 0.0, 1.0, 0.0;
    ( 0, 0, 0, 1, 1, 4, 1 ) 0.25, 0.25, 0.25, 0.25;
    ( 0, 0, 0, 1, 1, 5, 0 ) 0.0, 0.5227272727272727, 0.4772727272727273, 0.0;
    ( 0, 0, 0, 1, 1, 5, 1 ) 0.25, 0.25, 0.25, 0.25;
    ( 0, 0, 0, 1, 2, 0, 0 ) 0.0, 0.5086237872799138, 0.4879626302551204, 0.003413582464965864;
    ( 0, 0, 0, 1, 2, 0, 1 ) 0.0, 1.0, 0.0, 0.0;
    ( 0, 0, 0, 1, 2, 1, 0 ) 3.710781676160083e-05, 0.5801436072508674, 0.4179267862775294, 0.0018924986548416423;
    ( 0, 0, 0, 1, 2, 1, 1 ) 0.0, 0.8148148148148148, 0.18518518518518517, 0.0;
    ( 0, 0, 0, 1, 2, 2, 0 ) 0.0006965405154399814, 0.8404922219642442, 0.15881123752031576, 0.0;
    ( 0, 0, 0, 1, 2, 2, 1 ) 0.0, 0.6, 0.4, 0.0;
    ( 0, 0, 0, 1, 2, 3, 0 ) 0.0, 0.8614987080103359, 0.13824289405684753, 0.00025839793281653745;
    ( 0, 0, 0, 1, 2, 3, 1 ) 0.0, 0.7307692307692307, 0.2692307692307692, 0.0;
    ( 0, 0, 0, 1, 2, 4, 0 ) 0.0, 0.570401725101829, 0.4264036418816389, 0.003194633016532226;
    ( 0, 0, 0, 1, 2, 4, 1 ) 0.0, 0.75, 0.25, 0.0;
    ( 0, 0, 0, 1, 2, 5, 0 ) 0.0, 0.5364944456870201, 0.46290911801983153, 0.0005964362931484381;
    ( 0, 0, 0, 1, 2, 5, 1 ) 0.25, 0.25, 0.25, 0.25;
    ( 0, 0, 1, 0, 0, 0, 0 ) 0.0, 0.09476309226932668, 0.8827930174563591, 0.022443890274314215;
    ( 0, 0, 1, 0, 0, 0, 1 ) 0.25, 0.25, 0.25, 0.25;
    ( 0, 0, 1, 0, 0, 1, 0 ) 0.0, 0.2227745142340714, 0.7736104835065521, 0.0036150022593764122;
    ( 0, 0, 1, 0, 0, 1, 1 ) 0.25, 0.25, 0.25, 0.25;
    ( 0, 0, 1, 0, 0, 2, 0 ) 0.0, 0.8409090909090909, 0.1590909090909091, 0.0;
    ( 0, 0, 1, 0, 0, 2, 1 ) 0.25, 0.25, 0.25, 0.25;
    ( 0, 0, 1, 0, 0, 3, 0 ) 0.25, 0.25, 0.25, 0.25;
    ( 0, 0, 1, 0, 0, 3, 1 ) 0.25, 0.25, 0.25, 0.25;
    ( 0, 0, 1, 0, 0, 4, 0 ) 0.0, 0.3682008368200837, 0.6276150627615062, 0.0041841004184100415;
    ( 0, 0, 1, 0, 0, 4, 1 ) 0.25, 0.25, 0.25, 0.25;
    ( 0, 0, 1, 0, 0, 5, 0 ) 0.0, 0.23553851070629594, 0.7606263982102909, 0.003835091083413231;
    ( 0, 0, 1, 0, 0, 5, 1 ) 0.0, 0.0, 1.0, 0.0;
    ( 0, 0, 1, 0, 1, 0, 0 ) 0.0, 0.12830188679245283, 0.7660377358490567, 0.10566037735849057;
    ( 0, 0, 1, 0, 1, 0, 1 ) 0.25, 0.25, 0.25, 0.25;
    ( 0, 0, 1, 0, 1, 1, 0 ) 0.0, 0.20207253886010362, 0.7979274611398963, 0.0;
    ( 0, 0, 1, 0, 1, 1, 1 ) 0.25, 0.25, 0.25, 0.25;
    ( 0, 0, 1, 0, 1, 2, 0 ) 0.0, 0.875, 0.125, 0.0;
    ( 0, 0, 1, 0, 1, 2, 1 ) 0.25, 0.25, 0.25, 0.25;
    ( 0, 0, 1, 0, 1, 3, 0 ) 0.25, 0.25, 0.25, 0.25;
    ( 0, 0, 1, 0, 1, 3, 1 ) 0.25, 0.25, 0.25, 0.25;
    ( 0, 0, 1, 0, 1, 4, 0 ) 0.0, 0.1111111111111111, 0.8333333333333334, 0.05555555555555555;
    ( 0, 0, 1, 0, 1, 4, 1 ) 0.25, 0.25, 0.25, 0.25;
    ( 0, 0, 1, 0, 1, 5, 0 ) 0.0, 0.5185185185185185, 0.48148148148148145, 0.0;
    ( 0, 0, 1, 0, 1, 5, 1 ) 0.25, 0.25, 0.25, 0.25;
    ( 0, 0, 1, 0, 2, 0, 0 ) 0.0, 0.26965019963053455, 0.7122340742506406, 0.018115726118824862;
    ( 0, 0, 1, 0, 2, 0, 1 ) 0.0, 0.5, 0.375, 0.125;
    ( 0, 0, 1, 0, 2, 1, 0 ) 4.925016621931099e-05, 0.47374966140510727, 0.5222118249649093, 0.00398926346376419;
    ( 0, 0, 1, 0, 2, 1, 1 ) 0.0, 0.5681818181818182, 0.4318181818181818, 0.0;
    ( 0, 0, 1, 0, 2, 2, 0 ) 0.00030745580322828596, 0.8739431206764028, 0.12544196771714067, 0.00030745580322828596;
    ( 0, 0, 1, 0, 2, 2, 1 ) 0.0, 0.6363636363636364, 0.3181818181818182, 0.045454545454545456;
    ( 0, 0, 1, 0, 2, 3, 0 ) 0.0006476683937823834, 0.885038860103627, 0.11431347150259068, 0.0;
    ( 0, 0, 1, 0, 2, 3, 1 ) 0.0, 0.6428571428571429, 0.3392857142857143, 0.017857142857142856;
    ( 0, 0, 1, 0, 2, 4, 0 ) 0.0, 0.5218597145882709, 0.4764257979930412, 0.001714487418687913;
    ( 0, 0, 1, 0, 2, 4, 1 ) 0.0, 0.6666666666666666, 0.3333333333333333, 0.0;
    ( 0, 0, 1, 0, 2, 5, 0 ) 0.0, 0.4607149421062305, 0.536712001470318, 0.0025730564234515713;
    ( 0, 0, 1, 0, 2, 5, 1 ) 0.0, 0.0, 1.0, 0.0;
    ( 0, 0, 1, 1, 0, 0, 0 ) 0.0, 0.11643835616438356, 0.8698630136986302, 0.0136986301369863;
    ( 0, 0, 1, 1, 0, 0, 1 ) 0.25, 0.25, 0.25, 0.25;
    ( 0, 0, 1, 1, 0, 1, 0 ) 0.0, 0.40860215053763443, 0.5913978494623656, 0.0;
    ( 0, 0, 1, 1, 0, 1, 1 ) 0.0, 0.0, 1.0, 0.0;
    ( 0, 0, 1, 1, 0, 2, 0 ) 0.0, 0.7666666666666667, 0.23333333333333334, 0.0;
    ( 0, 0, 1, 1, 0, 2, 1 ) 0.25, 0.25, 0.25, 0.25;
    ( 0, 0, 1, 1, 0, 3, 0 ) 0.25, 0.25, 0.25, 0.25;
    ( 0, 0, 1, 1, 0, 3, 1 ) 0.25, 0.25, 0.25, 0.25;
    ( 0, 0, 1, 1, 0, 4, 0 ) 0.0, 0.6666666666666666, 0.3333333333333333, 0.0;
    ( 0, 0, 1, 1, 0, 4, 1 ) 0.25, 0.25, 0.25, 0.25;
    ( 0, 0, 1, 1, 0, 5, 0 ) 0.0, 0.6666666666666666, 0.3333333333333333, 0.0;
    ( 0, 0, 1, 1, 0, 5, 1 ) 0.25, 0.25, 0.25, 0.25;
    ( 0, 0, 1, 1, 1, 0, 0 ) 0.0, 0.08841732979664015, 0.843501326259947, 0.0680813439434129;
    ( 0, 0, 1, 1, 1, 0, 1 ) 0.25, 0.25, 0.25, 0.25;
    ( 0, 0, 1, 1, 1, 1, 0 ) 0.0, 0.1990521327014218, 0.7788309636650869, 0.022116903633491312;
    ( 0, 0, 1, 1, 1, 1, 1 ) 0.25, 0.25, 0.25, 0.25;
    ( 0, 0, 1, 1, 1, 2, 0 ) 0.0, 0.6170212765957447, 0.3829787234042553, 0.0;
    ( 0, 0, 1, 1, 1, 2, 1 ) 0.25, 0.25, 0.25, 0.25;
    ( 0, 0, 1, 1, 1, 3, 0 ) 0.25, 0.25, 0.25, 0.25;
    ( 0, 0, 1, 1, 1, 3, 1 ) 0.25, 0.25, 0.25, 0.25;
    ( 0, 0, 1, 1, 1, 4, 0 ) 0.0, 0.0, 0.9142857142857143, 0.08571428571428572;
    ( 0, 0, 1, 1, 1, 4, 1 ) 0.25, 0.25, 0.25, 0.25;
    ( 0, 0, 1, 1, 1, 5, 0 ) 0.0, 0.2596685082872928, 0.7348066298342542, 0.0055248618784530384;
    ( 0, 0, 1, 1, 1, 5, 1 ) 0.25, 0.25, 0.25, 0.25;
    ( 0, 0, 1, 1, 2, 0, 0 ) 0.0, 0.22077120187706462, 0.7514433021518323, 0.027785495971103084;
    ( 0, 0, 1, 1, 2, 0, 1 ) 0.0, 0.3, 0.7, 0.0;
    ( 0, 0, 1, 1, 2, 1, 0 ) 0.0, 0.3924219708327654, 0.5998364454136568, 0.007741583753577756;
    ( 0, 0, 1, 1, 2, 1, 1 ) 0.0, 0.38686131386861317, 0.6058394160583942, 0.0072992700729927005;
    ( 0, 0, 1, 1, 2, 2, 0 ) 0.000545404963185165, 0.7796563948731934, 0.21952549768202892, 0.0002727024815925825;
    ( 0, 0, 1, 1, 2, 2, 1 ) 0.0, 0.391304347826087, 0.6086956521739131, 0.0;
    ( 0, 0, 1, 1, 2, 3, 0 ) 0.0, 0.7622565480188046, 0.23774345198119542, 0.0;
    ( 0, 0, 1, 1, 2, 3, 1 ) 0.0, 0.5714285714285714, 0.42857142857142855, 0.0;
    ( 0, 0, 1, 1, 2, 4, 0 ) 0.00010797969981643452, 0.4261418853255588, 0.5702947845804989, 0.0034553503941259045;
    ( 0, 0, 1, 1, 2, 4, 1 ) 0.0, 0.5294117647058824, 0.47058823529411764, 0.0;
    ( 0, 0, 1, 1, 2, 5, 0 ) 0.0, 0.3794892664564045, 0.616034184555906, 0.00447654898768949;
    ( 0, 0, 1, 1, 2, 5, 1 ) 0.0, 1.0, 0.0, 0.0;
    ( 0, 1, 0, 0, 0, 0, 0 ) 0.25, 0.25, 0.25, 0.25;
    ( 0, 1, 0, 0, 0, 0, 1 ) 0.0, 0.2, 0.8, 0.0;
    ( 0, 1, 0, 0, 0, 1, 0 ) 0.25, 0.25, 0.25, 0.25;
    ( 0, 1, 0, 0, 0, 1, 1 ) 0.0, 0.4, 0.6, 0.0;
    ( 0, 1, 0, 0, 0, 2, 0 ) 0.25, 0.25, 0.25, 0.25;
    ( 0, 1, 0, 0, 0, 2, 1 ) 0.25, 0.25, 0.25, 0.25;
    ( 0, 1, 0, 0, 0, 3, 0 ) 0.25, 0.25, 0.25, 0.25;
    ( 0, 1, 0, 0, 0, 3, 1 ) 0.25, 0.25, 0.25, 0.25;
    ( 0, 1, 0, 0, 0, 4, 0 ) 0.25, 0.25, 0.25, 0.25;
    ( 0, 1, 0, 0, 0, 4, 1 ) 0.25, 0.25, 0.25, 0.25;
    ( 0, 1, 0, 0, 0, 5, 0 ) 0.25, 0.25, 0.25, 0.25;
    ( 0, 1, 0, 0, 0, 5, 1 ) 0.25, 0.25, 0.25, 0.25;
    ( 0, 1, 0, 0, 1, 0, 0 ) 0.25, 0.25, 0.25, 0.25;
    ( 0, 1, 0, 0, 1, 0, 1 ) 0.0, 0.0, 1.0, 0.0;
    ( 0, 1, 0, 0, 1, 1, 0 ) 0.25, 0.25, 0.25, 0.25;
    ( 0, 1, 0, 0, 1, 1, 1 ) 0.25, 0.25, 0.25, 0.25;
    ( 0, 1, 0, 0, 1, 2, 0 ) 0.25, 0.25, 0.25, 0.25;
    ( 0, 1, 0, 0, 1, 2, 1 ) 0.25, 0.25, 0.25, 0.25;
    ( 0, 1, 0, 0, 1, 3, 0 ) 0.25, 0.25, 0.25, 0.25;
    ( 0, 1, 0, 0, 1, 3, 1 ) 0.25, 0.25, 0.25, 0.25;
    ( 0, 1, 0, 0, 1, 4, 0 ) 0.25, 0.25, 0.25, 0.25;
    ( 0, 1, 0, 0, 1, 4, 1 ) 0.25, 0.25, 0.25, 0.25;
    ( 0, 1, 0, 0, 1, 5, 0 ) 0.25, 0.25, 0.25, 0.25;
    ( 0, 1, 0, 0, 1, 5, 1 ) 0.25, 0.25, 0.25, 0.25;
    ( 0, 1, 0, 0, 2, 0, 0 ) 0.25, 0.25, 0.25, 0.25;
    ( 0, 1, 0, 0, 2, 0, 1 ) 0.0, 0.20833333333333334, 0.7916666666666666, 0.0;
    ( 0, 1, 0, 0, 2, 1, 0 ) 0.0, 0.8, 0.2, 0.0;
    ( 0, 1, 0, 0, 2, 1, 1 ) 0.04, 0.4533333333333333, 0.5066666666666667, 0.0;
    ( 0, 1, 0, 0, 2, 2, 0 ) 0.0, 0.9111111111111111, 0.08888888888888889, 0.0;
    ( 0, 1, 0, 0, 2, 2, 1 ) 0.0, 1.0, 0.0, 0.0;
    ( 0, 1, 0, 0, 2, 3, 0 ) 0.0, 0.6296296296296297, 0.37037037037037035, 0.0;
    ( 0, 1, 0, 0, 2, 3, 1 ) 0.0, 0.7142857142857143, 0.2857142857142857, 0.0;
    ( 0, 1, 0, 0, 2, 4, 0 ) 0.0, 1.0, 0.0, 0.0;
    ( 0, 1, 0, 0, 2, 4, 1 ) 0.0, 1.0, 0.0, 0.0;
    ( 0, 1, 0, 0, 2, 5, 0 ) 0.25, 0.25, 0.25, 0.25;
    ( 0, 1, 0, 0, 2, 5, 1 ) 0.0, 0.3333333333333333, 0.6666666666666666, 0.0;
    ( 0, 1, 0, 1, 0, 0, 0 ) 0.25, 0.25, 0.25, 0.25;
    ( 0, 1, 0, 1, 0, 0, 1 ) 0.0, 0.0, 1.0, 0.0;
    ( 0, 1, 0, 1, 0, 1, 0 ) 0.25, 0.25, 0.25, 0.25;
    ( 0, 1, 0, 1, 0, 1, 1 ) 0.25, 0.25, 0.25, 0.25;
    ( 0, 1, 0, 1, 0, 2, 0 ) 0.25, 0.25, 0.25, 0.25;
    ( 0, 1, 0, 1, 0, 2, 1 ) 0.25, 0.25, 0.25, 0.25;
    ( 0, 1, 0, 1, 0, 3, 0 ) 0.25, 0.25, 0.25, 0.25;
    ( 0, 1, 0, 1, 0, 3, 1 ) 0.25, 0.25, 0.25, 0.25;
    ( 0, 1, 0, 1, 0, 4, 0 ) 0.25, 0.25, 0.25, 0.25;
    ( 0, 1, 0, 1, 0, 4, 1 ) 0.25, 0.25, 0.25, 0.25;
    ( 0, 1, 0, 1, 0, 5, 0 ) 0.25, 0.25, 0.25, 0.25;
    ( 0, 1, 0, 1, 0, 5, 1 ) 0.25, 0.25, 0.25, 0.25;
    ( 0, 1, 0, 1, 1, 0, 0 ) 0.0, 0.0, 1.0, 0.0;
    ( 0, 1, 0, 1, 1, 0, 1 ) 0.0, 0.0, 0.8, 0.2;
    ( 0, 1, 0, 1, 1, 1, 0 ) 0.25, 0.25, 0.25, 0.25;
    ( 0, 1, 0, 1, 1, 1, 1 ) 0.25, 0.25, 0.25, 0.25;
    ( 0, 1, 0, 1, 1, 2, 0 ) 0.25, 0.25, 0.25, 0.25;
    ( 0, 1, 0, 1, 1, 2, 1 ) 0.25, 0.25, 0.25, 0.25;
    ( 0, 1, 0, 1, 1, 3, 0 ) 0.25, 0.25, 0.25, 0.25;
    ( 0, 1, 0, 1, 1, 3, 1 ) 0.25, 0.25, 0.25, 0.25;
    ( 0, 1, 0, 1, 1, 4, 0 ) 0.25, 0.25, 0.25, 0.25;
    ( 0, 1, 0, 1, 1, 4, 1 ) 0.25, 0.25, 0.25, 0.25;
    ( 0, 1, 0, 1, 1, 5, 0 ) 0.25, 0.25, 0.25, 0.25;
    ( 0, 1, 0, 1, 1, 5, 1 ) 0.25, 0.25, 0.25, 0.25;
    ( 0, 1, 0, 1, 2, 0, 0 ) 0.25, 0.25, 0.25, 0.25;
    ( 0, 1, 0, 1, 2, 0, 1 ) 0.0, 0.15625, 0.84375, 0.0;
    ( 0, 1, 0, 1, 2, 1, 0 ) 0.0, 0.7142857142857143, 0.2857142857142857, 0.0;
    ( 0, 1, 0, 1, 2, 1, 1 ) 0.0, 0.410958904109589, 0.589041095890411, 0.0;
    ( 0, 1, 0, 1, 2, 2, 0 ) 0.0, 0.825, 0.175, 0.0;
    ( 0, 1, 0, 1, 2, 2, 1 ) 0.0, 0.8, 0.2, 0.0;
    ( 0, 1, 0, 1, 2, 3, 0 ) 0.0, 0.7857142857142857, 0.21428571428571427, 0.0;
    ( 0, 1, 0, 1, 2, 3, 1 ) 0.0, 0.5555555555555556, 0.4444444444444444, 0.0;
    ( 0, 1, 0, 1, 2, 4, 0 ) 0.0, 0.0, 1.0, 0.0;
    ( 0, 1, 0, 1, 2, 4, 1 ) 0.0, 1.0, 0.0, 0.0;
    ( 0, 1, 0, 1, 2, 5, 0 ) 0.25, 0.25, 0.25, 0.25;
    ( 0, 1, 0, 1, 2, 5, 1 ) 0.0, 1.0, 0.0, 0.0;
    ( 0, 1, 1, 0, 0, 0, 0 ) 0.25, 0.25, 0.25, 0.25;
    ( 0, 1, 1, 0, 0, 0, 1 ) 0.0, 0.08883248730964467, 0.8350253807106599, 0.07614213197969544;
    ( 0, 1, 1, 0, 0, 1, 0 ) 0.25, 0.25, 0.25, 0.25;
    ( 0, 1, 1, 0, 0, 1, 1 ) 0.0, 0.10576923076923077, 0.875, 0.019230769230769232;
    ( 0, 1, 1, 0, 0, 2, 0 ) 0.25, 0.25, 0.25, 0.25;
    ( 0, 1, 1, 0, 0, 2, 1 ) 0.25, 0.25, 0.25, 0.25;
    ( 0, 1, 1, 0, 0, 3, 0 ) 0.25, 0.25, 0.25, 0.25;
    ( 0, 1, 1, 0, 0, 3, 1 ) 0.25, 0.25, 0.25, 0.25;
    ( 0, 1, 1, 0, 0, 4, 0 ) 0.25, 0.25, 0.25, 0.25;
    ( 0, 1, 1, 0, 0, 4, 1 ) 0.25, 0.25, 0.25, 0.25;
    ( 0, 1, 1, 0, 0, 5, 0 ) 0.25, 0.25, 0.25, 0.25;
    ( 0, 1, 1, 0, 0, 5, 1 ) 0.25, 0.25, 0.25, 0.25;
    ( 0, 1, 1, 0, 1, 0, 0 ) 0.0, 0.0, 1.0, 0.0;
    ( 0, 1, 1, 0, 1, 0, 1 ) 0.0, 0.0, 0.9722222222222222, 0.027777777777777776;
    ( 0, 1, 1, 0, 1, 1, 0 ) 0.25, 0.25, 0.25, 0.25;
    ( 0, 1, 1, 0, 1, 1, 1 ) 0.25, 0.25, 0.25, 0.25;
    ( 0, 1, 1, 0, 1, 2, 0 ) 0.25, 0.25, 0.25, 0.25;
    ( 0, 1, 1, 0, 1, 2, 1 ) 0.25, 0.25, 0.25, 0.25;
    ( 0, 1, 1, 0, 1, 3, 0 ) 0.25, 0.25, 0.25, 0.25;
    ( 0, 1, 1, 0, 1, 3, 1 ) 0.25, 0.25, 0.25, 0.25;
    ( 0, 1, 1, 0, 1, 4, 0 ) 0.25, 0.25, 0.25, 0.25;
    ( 0, 1, 1, 0, 1, 4, 1 ) 0.25, 0.25, 0.25, 0.25;
    ( 0, 1, 1, 0, 1, 5, 0 ) 0.25, 0.25, 0.25, 0.25;
    ( 0, 1, 1, 0, 1, 5, 1 ) 0.25, 0.25, 0.25, 0.25;
    ( 0, 1, 1, 0, 2, 0, 0 ) 0.25, 0.25, 0.25, 0.25;
    ( 0, 1, 1, 0, 2, 0, 1 ) 0.0, 0.10540540540540541, 0.8135135135135135, 0.08108108108108109;
    ( 0, 1, 1, 0, 2, 1, 0 ) 0.0, 0.6923076923076923, 0.3076923076923077, 0.0;
    ( 0, 1, 1, 0, 2, 1, 1 ) 0.0012077294685990338, 0.27294685990338163, 0.714975845410628, 0.010869565217391304;
    ( 0, 1, 1, 0, 2, 2, 0 ) 0.0, 0.7543859649122807, 0.24561403508771928, 0.0;
    ( 0, 1, 1, 0, 2, 2, 1 ) 0.0, 0.6470588235294118, 0.35294117647058826, 0.0;
    ( 0, 1, 1, 0, 2, 3, 0 ) 0.0, 0.8048780487804879, 0.1951219512195122, 0.0;
    ( 0, 1, 1, 0, 2, 3, 1 ) 0.0, 0.4444444444444444, 0.5555555555555556, 0.0;
    ( 0, 1, 1, 0, 2, 4, 0 ) 0.0, 0.0, 1.0, 0.0;
    ( 0, 1, 1, 0, 2, 4, 1 ) 0.0, 0.21052631578947367, 0.7894736842105263, 0.0;
    ( 0, 1, 1, 0, 2, 5, 0 ) 0.25, 0.25, 0.25, 0.25;
    ( 0, 1, 1, 0, 2, 5, 1 ) 0.0, 0.13725490196078433, 0.8431372549019608, 0.0196078431372549;
    ( 0, 1, 1, 1, 0, 0, 0 ) 0.25, 0.25, 0.25, 0.25;
    ( 0, 1, 1, 1, 0, 0, 1 ) 0.0, 0.03225806451612903, 0.9354838709677419, 0.03225806451612903;
    ( 0, 1, 1, 1, 0, 1, 0 ) 0.25, 0.25, 0.25, 0.25;
    ( 0, 1, 1, 1, 0, 1, 1 ) 0.0, 0.125, 0.875, 0.0;
    ( 0, 1, 1, 1, 0, 2, 0 ) 0.25, 0.25, 0.25, 0.25;
    ( 0, 1, 1, 1, 0, 2, 1 ) 0.25, 0.25, 0.25, 0.25;
    ( 0, 1, 1, 1, 0, 3, 0 ) 0.25, 0.25, 0.25, 0.25;
    ( 0, 1, 1, 1, 0, 3, 1 ) 0.25, 0.25, 0.25, 0.25;
    ( 0, 1, 1, 1, 0, 4, 0 ) 0.25, 0.25, 0.25, 0.25;
    ( 0, 1, 1, 1, 0, 4, 1 ) 0.25, 0.25, 0.25, 0.25;
    ( 0, 1, 1, 1, 0, 5, 0 ) 0.25, 0.25, 0.25, 0.25;
    ( 0, 1, 1, 1, 0, 5, 1 ) 0.25, 0.25, 0.25, 0.25;
    ( 0, 1, 1, 1, 1, 0, 0 ) 0.0, 0.06818181818181818, 0.8409090909090909, 0.09090909090909091;
    ( 0, 1, 1, 1, 1, 0, 1 ) 0.0, 0.01818181818181818, 0.8036363636363636, 0.1781818181818182;
    ( 0, 1, 1, 1, 1, 1, 0 ) 0.25, 0.25, 0.25, 0.25;
    ( 0, 1, 1, 1, 1, 1, 1 ) 0.0, 0.15384615384615385, 0.7692307692307693, 0.07692307692307693;
    ( 0, 1, 1, 1, 1, 2, 0 ) 0.25, 0.25, 0.25, 0.25;
    ( 0, 1, 1, 1, 1, 2, 1 ) 0.25, 0.25, 0.25, 0.25;
    ( 0, 1, 1, 1, 1, 3, 0 ) 0.25, 0.25, 0.25, 0.25;
    ( 0, 1, 1, 1, 1, 3, 1 ) 0.25, 0.25, 0.25, 0.25;
    ( 0, 1, 1, 1, 1, 4, 0 ) 0.25, 0.25, 0.25, 0.25;
    ( 0, 1, 1, 1, 1, 4, 1 ) 0.25, 0.25, 0.25, 0.25;
    ( 0, 1, 1, 1, 1, 5, 0 ) 0.25, 0.25, 0.25, 0.25;
    ( 0, 1, 1, 1, 1, 5, 1 ) 0.25, 0.25, 0.25, 0.25;
    ( 0, 1, 1, 1, 2, 0, 0 ) 0.25, 0.25, 0.25, 0.25;
    ( 0, 1, 1, 1, 2, 0, 1 ) 0.0, 0.08944543828264759, 0.8130590339892666, 0.09749552772808587;
    ( 0, 1, 1, 1, 2, 1, 0 ) 0.0, 0.48, 0.52, 0.0;
    ( 0, 1, 1, 1, 2, 1, 1 ) 0.0, 0.27156862745098037, 0.7029411764705882, 0.025490196078431372;
    ( 0, 1, 1, 1, 2, 2, 0 ) 0.0, 0.6533333333333333, 0.3466666666666667, 0.0;
    ( 0, 1, 1, 1, 2, 2, 1 ) 0.0, 0.5263157894736842, 0.47368421052631576, 0.0;
    ( 0, 1, 1, 1, 2, 3, 0 ) 0.0, 0.6590909090909091, 0.3409090909090909, 0.0;
    ( 0, 1, 1, 1, 2, 3, 1 ) 0.0, 0.5, 0.5, 0.0;
    ( 0, 1, 1, 1, 2, 4, 0 ) 0.0, 1.0, 0.0, 0.0;
    ( 0, 1, 1, 1, 2, 4, 1 ) 0.0, 0.25, 0.75, 0.0;
    ( 0, 1, 1, 1, 2, 5, 0 ) 0.25, 0.25, 0.25, 0.25;
    ( 0, 1, 1, 1, 2, 5, 1 ) 0.0, 0.2, 0.76, 0.04;
    ( 0, 2, 0, 0, 0, 0, 0 ) 0.25, 0.25, 0.25, 0.25;
    ( 0, 2, 0, 0, 0, 0, 1 ) 0.25, 0.25, 0.25, 0.25;
    ( 0, 2, 0, 0, 0, 1, 0 ) 0.25, 0.25, 0.25, 0.25;
    ( 0, 2, 0, 0, 0, 1, 1 ) 0.25, 0.25, 0.25, 0.25;
    ( 0, 2, 0, 0, 0, 2, 0 ) 0.25, 0.25, 0.25, 0.25;
    ( 0, 2, 0, 0, 0, 2, 1 ) 0.25, 0.25, 0.25, 0.25;
    ( 0, 2, 0, 0, 0, 3, 0 ) 0.25, 0.25, 0.25, 0.25;
    ( 0, 2, 0, 0, 0, 3, 1 ) 0.25, 0.25, 0.25, 0.25;
    ( 0, 2, 0, 0, 0, 4, 0 ) 0.25, 0.25, 0.25, 0.25;
    ( 0, 2, 0, 0, 0, 4, 1 ) 0.25, 0.25, 0.25, 0.25;
    ( 0, 2, 0, 0, 0, 5, 0 ) 0.25, 0.25, 0.25, 0.25;
    ( 0, 2, 0, 0, 0, 5, 1 ) 0.25, 0.25, 0.25, 0.25;
    ( 0, 2, 0, 0, 1, 0, 0 ) 0.25, 0.25, 0.25, 0.25;
    ( 0, 2, 0, 0, 1, 0, 1 ) 0.25, 0.25, 0.25, 0.25;
    ( 0, 2, 0, 0, 1, 1, 0 ) 0.25, 0.25, 0.25, 0.25;
    ( 0, 2, 0, 0, 1, 1, 1 ) 0.25, 0.25, 0.25, 0.25;
    ( 0, 2, 0, 0, 1, 2, 0 ) 0.25, 0.25, 0.25, 0.25;
    ( 0, 2, 0, 0, 1, 2, 1 ) 0.25, 0.25, 0.25, 0.25;
    ( 0, 2, 0, 0, 1, 3, 0 ) 0.25, 0.25, 0.25, 0.25;
    ( 0, 2, 0, 0, 1, 3, 1 ) 0.25, 0.25, 0.25, 0.25;
    ( 0, 2, 0, 0, 1, 4, 0 ) 0.25, 0.25, 0.25, 0.25;
    ( 0, 2, 0, 0, 1, 4, 1 ) 0.25, 0.25, 0.25, 0.25;
    ( 0, 2, 0, 0, 1, 5, 0 ) 0.25, 0.25, 0.25, 0.25;
    ( 0, 2, 0, 0, 1, 5, 1 ) 0.25, 0.25, 0.25, 0.25;
    ( 0, 2, 0, 0, 2, 0, 0 ) 0.25, 0.25, 0.25, 0.25;
    ( 0, 2, 0, 0, 2, 0, 1 ) 0.25, 0.25, 0.25, 0.25;
    ( 0, 2, 0, 0, 2, 1, 0 ) 0.0, 0.8818181818181818, 0.11818181818181818, 0.0;
    ( 0, 2, 0, 0, 2, 1, 1 ) 0.25, 0.25, 0.25, 0.25;
    ( 0, 2, 0, 0, 2, 2, 0 ) 0.0, 1.0, 0.0, 0.0;
    ( 0, 2, 0, 0, 2, 2, 1 ) 0.0, 0.6428571428571429, 0.35714285714285715, 0.0;
    ( 0, 2, 0, 0, 2, 3, 0 ) 0.0, 0.9393939393939394, 0.06060606060606061, 0.0;
    ( 0, 2, 0, 0, 2, 3, 1 ) 0.0, 0.8888888888888888, 0.1111111111111111, 0.0;
    ( 0, 2, 0, 0, 2, 4, 0 ) 0.0, 0.7894736842105263, 0.21052631578947367, 0.0;
    ( 0, 2, 0, 0, 2, 4, 1 ) 0.0, 1.0, 0.0, 0.0;
    ( 0, 2, 0, 0, 2, 5, 0 ) 0.25, 0.25, 0.25, 0.25;
    ( 0, 2, 0, 0, 2, 5, 1 ) 0.25, 0.25, 0.25, 0.25;
    ( 0, 2, 0, 1, 0, 0, 0 ) 0.25, 0.25, 0.25, 0.25;
    ( 0, 2, 0, 1, 0, 0, 1 ) 0.25, 0.25, 0.25, 0.25;
    ( 0, 2, 0, 1, 0, 1, 0 ) 0.25, 0.25, 0.25, 0.25;
    ( 0, 2, 0, 1, 0, 1, 1 ) 0.25, 0.25, 0.25, 0.25;
    ( 0, 2, 0, 1, 0, 2, 0 ) 0.25, 0.25, 0.25, 0.25;
    ( 0, 2, 0, 1, 0, 2, 1 ) 0.25, 0.25, 0.25, 0.25;
    ( 0, 2, 0, 1, 0, 3, 0 ) 0.25, 0.25, 0.25, 0.25;
    ( 0, 2, 0, 1, 0, 3, 1 ) 0.25, 0.25, 0.25, 0.25;
    ( 0, 2, 0, 1, 0, 4, 0 ) 0.25, 0.25, 0.25, 0.25;
    ( 0, 2, 0, 1, 0, 4, 1 ) 0.25, 0.25, 0.25, 0.25;
    ( 0, 2, 0, 1, 0, 5, 0 ) 0.25, 0.25, 0.25, 0.25;
    ( 0, 2, 0, 1, 0, 5, 1 ) 0.25, 0.25, 0.25, 0.25;
    ( 0, 2, 0, 1, 1, 0, 0 ) 0.25, 0.25, 0.25, 0.25;
    ( 0, 2, 0, 1, 1, 0, 1 ) 0.25, 0.25, 0.25, 0.25;
    ( 0, 2, 0, 1, 1, 1, 0 ) 0.25, 0.25, 0.25, 0.25;
    ( 0, 2, 0, 1, 1, 1, 1 ) 0.25, 0.25, 0.25, 0.25;
    ( 0, 2, 0, 1, 1, 2, 0 ) 0.25, 0.25, 0.25, 0.25;
    ( 0, 2, 0, 1, 1, 2, 1 ) 0.25, 0.25, 0.25, 0.25;
    ( 0, 2, 0, 1, 1, 3, 0 ) 0.25, 0.25, 0.25, 0.25;
    ( 0, 2, 0, 1, 1, 3, 1 ) 0.25, 0.25, 0.25, 0.25;
    ( 0, 2, 0, 1, 1, 4, 0 ) 0.25, 0.25, 0.25, 0.25;
    ( 0, 2, 0, 1, 1, 4, 1 ) 0.25, 0.25, 0.25, 0.25;
    ( 0, 2, 0, 1, 1, 5, 0 ) 0.25, 0.25, 0.25, 0.25;
    ( 0, 2, 0, 1, 1, 5, 1 ) 0.25, 0.25, 0.25, 0.25;
    ( 0, 2, 0, 1, 2, 0, 0 ) 0.25, 0.25, 0.25, 0.25;
    ( 0, 2, 0, 1, 2, 0, 1 ) 0.25, 0.25, 0.25, 0.25;
    ( 0, 2, 0, 1, 2, 1, 0 ) 0.0, 0.7717391304347826, 0.22826086956521738, 0.0;
    ( 0, 2, 0, 1, 2, 1, 1 ) 0.25, 0.25, 0.25, 0.25;
    ( 0, 2, 0, 1, 2, 2, 0 ) 0.0, 0.8888888888888888, 0.1111111111111111, 0.0;
    ( 0, 2, 0, 1, 2, 2, 1 ) 0.0, 0.5, 0.5, 0.0;
    ( 0, 2, 0, 1, 2, 3, 0 ) 0.0, 0.8241758241758241, 0.17582417582417584, 0.0;
    ( 0, 2, 0, 1, 2, 3, 1 ) 0.0, 0.8, 0.2, 0.0;
    ( 0, 2, 0, 1, 2, 4, 0 ) 0.0, 0.8095238095238095, 0.19047619047619047, 0.0;
    ( 0, 2, 0, 1, 2, 4, 1 ) 0.0, 0.5, 0.5, 0.0;
    ( 0, 2, 0, 1, 2, 5, 0 ) 0.25, 0.25, 0.25, 0.25;
    ( 0, 2, 0, 1, 2, 5, 1 ) 0.25, 0.25, 0.25, 0.25;
    ( 0, 2, 1, 0, 0, 0, 0 ) 0.25, 0.25, 0.25, 0.25;
    ( 0, 2, 1, 0, 0, 0, 1 ) 0.25, 0.25, 0.25, 0.25;
    ( 0, 2, 1, 0, 0, 1, 0 ) 0.25, 0.25, 0.25, 0.25;
    ( 0, 2, 1, 0, 0, 1, 1 ) 0.25, 0.25, 0.25, 0.25;
    ( 0, 2, 1, 0, 0, 2, 0 ) 0.25, 0.25, 0.25, 0.25;
    ( 0, 2, 1, 0, 0, 2, 1 ) 0.25, 0.25, 0.25, 0.25;
    ( 0, 2, 1, 0, 0, 3, 0 ) 0.25, 0.25, 0.25, 0.25;
    ( 0, 2, 1, 0, 0, 3, 1 ) 0.25, 0.25, 0.25, 0.25;
    ( 0, 2, 1, 0, 0, 4, 0 ) 0.25, 0.25, 0.25, 0.25;
    ( 0, 2, 1, 0, 0, 4, 1 ) 0.25, 0.25, 0.25, 0.25;
    ( 0, 2, 1, 0, 0, 5, 0 ) 0.25, 0.25, 0.25, 0.25;
    ( 0, 2, 1, 0, 0, 5, 1 ) 0.25, 0.25, 0.25, 0.25;
    ( 0, 2, 1, 0, 1, 0, 0 ) 0.25, 0.25, 0.25, 0.25;
    ( 0, 2, 1, 0, 1, 0, 1 ) 0.25, 0.25, 0.25, 0.25;
    ( 0, 2, 1, 0, 1, 1, 0 ) 0.25, 0.25, 0.25, 0.25;
    ( 0, 2, 1, 0, 1, 1, 1 ) 0.25, 0.25, 0.25, 0.25;
    ( 0, 2, 1, 0, 1, 2, 0 ) 0.25, 0.25, 0.25, 0.25;
    ( 0, 2, 1, 0, 1, 2, 1 ) 0.25, 0.25, 0.25, 0.25;
    ( 0, 2, 1, 0, 1, 3, 0 ) 0.25, 0.25, 0.25, 0.25;
    ( 0, 2, 1, 0, 1, 3, 1 ) 0.25, 0.25, 0.25, 0.25;
    ( 0, 2, 1, 0, 1, 4, 0 ) 0.25, 0.25, 0.25, 0.25;
    ( 0, 2, 1, 0, 1, 4, 1 ) 0.25, 0.25, 0.25, 0.25;
    ( 0, 2, 1, 0, 1, 5, 0 ) 0.25, 0.25, 0.25, 0.25;
    ( 0, 2, 1, 0, 1, 5, 1 ) 0.25, 0.25, 0.25, 0.25;
    ( 0, 2, 1, 0, 2, 0, 0 ) 0.0, 0.0, 1.0, 0.0;
    ( 0, 2, 1, 0, 2, 0, 1 ) 0.0, 0.3333333333333333, 0.6666666666666666, 0.0;
    ( 0, 2, 1, 0, 2, 1, 0 ) 0.0, 0.7758620689655172, 0.22413793103448276, 0.0;
    ( 0, 2, 1, 0, 2, 1, 1 ) 0.0, 0.25, 0.75, 0.0;
    ( 0, 2, 1, 0, 2, 2, 0 ) 0.0, 0.8541666666666666, 0.14583333333333334, 0.0;
    ( 0, 2, 1, 0, 2, 2, 1 ) 0.0, 0.7241379310344828, 0.27586206896551724, 0.0;
    ( 0, 2, 1, 0, 2, 3, 0 ) 0.0, 0.9325842696629213, 0.06741573033707865, 0.0;
    ( 0, 2, 1, 0, 2, 3, 1 ) 0.0, 1.0, 0.0, 0.0;
    ( 0, 2, 1, 0, 2, 4, 0 ) 0.0, 0.75, 0.25, 0.0;
    ( 0, 2, 1, 0, 2, 4, 1 ) 0.0, 0.6666666666666666, 0.3333333333333333, 0.0;
    ( 0, 2, 1, 0, 2, 5, 0 ) 0.25, 0.25, 0.25, 0.25;
    ( 0, 2, 1, 0, 2, 5, 1 ) 0.25, 0.25, 0.25, 0.25;
    ( 0, 2, 1, 1, 0, 0, 0 ) 0.25, 0.25, 0.25, 0.25;
    ( 0, 2, 1, 1, 0, 0, 1 ) 0.25, 0.25, 0.25, 0.25;
    ( 0, 2, 1, 1, 0, 1, 0 ) 0.25, 0.25, 0.25, 0.25;
    ( 0, 2, 1, 1, 0, 1, 1 ) 0.25, 0.25, 0.25, 0.25;
    ( 0, 2, 1, 1, 0, 2, 0 ) 0.25, 0.25, 0.25, 0.25;
    ( 0, 2, 1, 1, 0, 2, 1 ) 0.25, 0.25, 0.25, 0.25;
    ( 0, 2, 1, 1, 0, 3, 0 ) 0.25, 0.25, 0.25, 0.25;
    ( 0, 2, 1, 1, 0, 3, 1 ) 0.25, 0.25, 0.25, 0.25;
    ( 0, 2, 1, 1, 0, 4, 0 ) 0.25, 0.25, 0.25, 0.25;
    ( 0, 2, 1, 1, 0, 4, 1 ) 0.25, 0.25, 0.25, 0.25;
    ( 0, 2, 1, 1, 0, 5, 0 ) 0.25, 0.25, 0.25, 0.25;
    ( 0, 2, 1, 1, 0, 5, 1 ) 0.25, 0.25, 0.25, 0.25;
    ( 0, 2, 1, 1, 1, 0, 0 ) 0.25, 0.25, 0.25, 0.25;
    ( 0, 2, 1, 1, 1, 0, 1 ) 0.25, 0.25, 0.25, 0.25;
    ( 0, 2, 1, 1, 1, 1, 0 ) 0.25, 0.25, 0.25, 0.25;
    ( 0, 2, 1, 1, 1, 1, 1 ) 0.25, 0.25, 0.25, 0.25;
    ( 0, 2, 1, 1, 1, 2, 0 ) 0.25, 0.25, 0.25, 0.25;
    ( 0, 2, 1, 1, 1, 2, 1 ) 0.25, 0.25, 0.25, 0.25;
    ( 0, 2, 1, 1, 1, 3, 0 ) 0.25, 0.25, 0.25, 0.25;
    ( 0, 2, 1, 1, 1, 3, 1 ) 0.25, 0.25, 0.25, 0.25;
    ( 0, 2, 1, 1, 1, 4, 0 ) 0.25, 0.25, 0.25, 0.25;
    ( 0, 2, 1, 1, 1, 4, 1 ) 0.25, 0.25, 0.25, 0.25;
    ( 0, 2, 1, 1, 1, 5, 0 ) 0.25, 0.25, 0.25, 0.25;
    ( 0, 2, 1, 1, 1, 5, 1 ) 0.25, 0.25, 0.25, 0.25;
    ( 0, 2, 1, 1, 2, 0, 0 ) 0.0, 0.25, 0.75, 0.0;
    ( 0, 2, 1, 1, 2, 0, 1 ) 0.0, 0.0, 1.0, 0.0;
    ( 0, 2, 1, 1, 2, 1, 0 ) 0.0, 0.6434782608695652, 0.3565217391304348, 0.0;
    ( 0, 2, 1, 1, 2, 1, 1 ) 0.0, 0.1875, 0.8125, 0.0;
    ( 0, 2, 1, 1, 2, 2, 0 ) 0.0, 0.6929133858267716, 0.30708661417322836, 0.0;
    ( 0, 2, 1, 1, 2, 2, 1 ) 0.0, 0.7857142857142857, 0.21428571428571427, 0.0;
    ( 0, 2, 1, 1, 2, 3, 0 ) 0.0, 0.7894736842105263, 0.21052631578947367, 0.0;
    ( 0, 2, 1, 1, 2, 3, 1 ) 0.0, 0.875, 0.125, 0.0;
    ( 0, 2, 1, 1, 2, 4, 0 ) 0.0, 0.7878787878787878, 0.21212121212121213, 0.0;
    ( 0, 2, 1, 1, 2, 4, 1 ) 0.0, 0.75, 0.25, 0.0;
    ( 0, 2, 1, 1, 2, 5, 0 ) 0.25, 0.25, 0.25, 0.25;
    ( 0, 2, 1, 1, 2, 5, 1 ) 0.25, 0.25, 0.25, 0.25;
    ( 1, 0, 0, 0, 0, 0, 0 ) 0.25, 0.25, 0.25, 0.25;
    ( 1, 0, 0, 0, 0, 0, 1 ) 0.25, 0.25, 0.25, 0.25;
    ( 1, 0, 0, 0, 0, 1, 0 ) 0.25, 0.25, 0.25, 0.25;
    ( 1, 0, 0, 0, 0, 1, 1 ) 0.25, 0.25, 0.25, 0.25;
    ( 1, 0, 0, 0, 0, 2, 0 ) 0.25, 0.25, 0.25, 0.25;
    ( 1, 0, 0, 0, 0, 2, 1 ) 0.25, 0.25, 0.25, 0.25;
    ( 1, 0, 0, 0, 0, 3, 0 ) 0.25, 0.25, 0.25, 0.25;
    ( 1, 0, 0, 0, 0, 3, 1 ) 0.25, 0.25, 0.25, 0.25;
    ( 1, 0, 0, 0, 0, 4, 0 ) 0.25, 0.25, 0.25, 0.25;
    ( 1, 0, 0, 0, 0, 4, 1 ) 0.25, 0.25, 0.25, 0.25;
    ( 1, 0, 0, 0, 0, 5, 0 ) 0.25, 0.25, 0.25, 0.25;
    ( 1, 0, 0, 0, 0, 5, 1 ) 0.25, 0.25, 0.25, 0.25;
    ( 1, 0, 0, 0, 1, 0, 0 ) 0.25, 0.25, 0.25, 0.25;
    ( 1, 0, 0, 0, 1, 0, 1 ) 0.25, 0.25, 0.25, 0.25;
    ( 1, 0, 0, 0, 1, 1, 0 ) 0.25, 0.25, 0.25, 0.25;
    ( 1, 0, 0, 0, 1, 1, 1 ) 0.25, 0.25, 0.25, 0.25;
    ( 1, 0, 0, 0, 1, 2, 0 ) 0.25, 0.25, 0.25, 0.25;
    ( 1, 0, 0, 0, 1, 2, 1 ) 0.25, 0.25, 0.25, 0.25;
    ( 1, 0, 0, 0, 1, 3, 0 ) 0.25, 0.25, 0.25, 0.25;
    ( 1, 0, 0, 0, 1, 3, 1 ) 0.25, 0.25, 0.25, 0.25;
    ( 1, 0, 0, 0, 1, 4, 0 ) 0.25, 0.25, 0.25, 0.25;
    ( 1, 0, 0, 0, 1, 4, 1 ) 0.25, 0.25, 0.25, 0.25;
    ( 1, 0, 0, 0, 1, 5, 0 ) 0.25, 0.25, 0.25, 0.25;
    ( 1, 0, 0, 0, 1, 5, 1 ) 0.25, 0.25, 0.25, 0.25;
    ( 1, 0, 0, 0, 2, 0, 0 ) 0.0, 0.7802197802197802, 0.21978021978021978, 0.0;
    ( 1, 0, 0, 0, 2, 0, 1 ) 0.25, 0.25, 0.25, 0.25;
    ( 1, 0, 0, 0, 2, 1, 0 ) 0.0, 0.6778169014084507, 0.3221830985915493, 0.0;
    ( 1, 0, 0, 0, 2, 1, 1 ) 0.0, 1.0, 0.0, 0.0;
    ( 1, 0, 0, 0, 2, 2, 0 ) 0.0, 0.8695652173913043, 0.13043478260869565, 0.0;
    ( 1, 0, 0, 0, 2, 2, 1 ) 0.25, 0.25, 0.25, 0.25;
    ( 1, 0, 0, 0, 2, 3, 0 ) 0.0, 0.9538461538461539, 0.046153846153846156, 0.0;
    ( 1, 0, 0, 0, 2, 3, 1 ) 0.25, 0.25, 0.25, 0.25;
    ( 1, 0, 0, 0, 2, 4, 0 ) 0.0, 0.8333333333333334, 0.16666666666666666, 0.0;
    ( 1, 0, 0, 0, 2, 4, 1 ) 0.25, 0.25, 0.25, 0.25;
    ( 1, 0, 0, 0, 2, 5, 0 ) 0.0, 0.7916666666666666, 0.20833333333333334, 0.0;
    ( 1, 0, 0, 0, 2, 5, 1 ) 0.25, 0.25, 0.25, 0.25;
    ( 1, 0, 0, 1, 0, 0, 0 ) 0.25, 0.25, 0.25, 0.25;
    ( 1, 0, 0, 1, 0, 0, 1 ) 0.25, 0.25, 0.25, 0.25;
    ( 1, 0, 0, 1, 0, 1, 0 ) 0.25, 0.25, 0.25, 0.25;
    ( 1, 0, 0, 1, 0, 1, 1 ) 0.25, 0.25, 0.25, 0.25;
    ( 1, 0, 0, 1, 0, 2, 0 ) 0.25, 0.25, 0.25, 0.25;
    ( 1, 0, 0, 1, 0, 2, 1 ) 0.25, 0.25, 0.25, 0.25;
    ( 1, 0, 0, 1, 0, 3, 0 ) 0.25, 0.25, 0.25, 0.25;
    ( 1, 0, 0, 1, 0, 3, 1 ) 0.25, 0.25, 0.25, 0.25;
    ( 1, 0, 0, 1, 0, 4, 0 ) 0.25, 0.25, 0.25, 0.25;
    ( 1, 0, 0, 1, 0, 4, 1 ) 0.25, 0.25, 0.25, 0.25;
    ( 1, 0, 0, 1, 0, 5, 0 ) 0.25, 0.25, 0.25, 0.25;
    ( 1, 0, 0, 1, 0, 5, 1 ) 0.25, 0.25, 0.25, 0.25;
    ( 1, 0, 0, 1, 1, 0, 0 ) 0.0, 0.0, 1.0, 0.0;
    ( 1, 0, 0, 1, 1, 0, 1 ) 0.25, 0.25, 0.25, 0.25;
    ( 1, 0, 0, 1, 1, 1, 0 ) 0.25, 0.25, 0.25, 0.25;
    ( 1, 0, 0, 1, 1, 1, 1 ) 0.25, 0.25, 0.25, 0.25;
    ( 1, 0, 0, 1, 1, 2, 0 ) 0.25, 0.25, 0.25, 0.25;
    ( 1, 0, 0, 1, 1, 2, 1 ) 0.25, 0.25, 0.25, 0.25;
    ( 1, 0, 0, 1, 1, 3, 0 ) 0.25, 0.25, 0.25, 0.25;
    ( 1, 0, 0, 1, 1, 3, 1 ) 0.25, 0.25, 0.25, 0.25;
    ( 1, 0, 0, 1, 1, 4, 0 ) 0.25, 0.25, 0.25, 0.25;
    ( 1, 0, 0, 1, 1, 4, 1 ) 0.25, 0.25, 0.25, 0.25;
    ( 1, 0, 0, 1, 1, 5, 0 ) 0.25, 0.25, 0.25, 0.25;
    ( 1, 0, 0, 1, 1, 5, 1 ) 0.25, 0.25, 0.25, 0.25;
    ( 1, 0, 0, 1, 2, 0, 0 ) 0.0, 0.6785714285714286, 0.32142857142857145, 0.0;
    ( 1, 0, 0, 1, 2, 0, 1 ) 0.25, 0.25, 0.25, 0.25;
    ( 1, 0, 0, 1, 2, 1, 0 ) 0.0, 0.6856435643564357, 0.31435643564356436, 0.0;
    ( 1, 0, 0, 1, 2, 1, 1 ) 0.25, 0.25, 0.25, 0.25;
    ( 1, 0, 0, 1, 2, 2, 0 ) 0.0, 1.0, 0.0, 0.0;
    ( 1, 0, 0, 1, 2, 2, 1 ) 0.25, 0.25, 0.25, 0.25;
    ( 1, 0, 0, 1, 2, 3, 0 ) 0.0, 0.7941176470588235, 0.20588235294117646, 0.0;
    ( 1, 0, 0, 1, 2, 3, 1 ) 0.25, 0.25, 0.25, 0.25;
    ( 1, 0, 0, 1, 2, 4, 0 ) 0.0, 0.7083333333333334, 0.2916666666666667, 0.0;
    ( 1, 0, 0, 1, 2, 4, 1 ) 0.25, 0.25, 0.25, 0.25;
    ( 1, 0, 0, 1, 2, 5, 0 ) 0.0, 0.6901408450704225, 0.30985915492957744, 0.0;
    ( 1, 0, 0, 1, 2, 5, 1 ) 0.25, 0.25, 0.25, 0.25;
    ( 1, 0, 1, 0, 0, 0, 0 ) 0.25, 0.25, 0.25, 0.25;
    ( 1, 0, 1, 0, 0, 0, 1 ) 0.25, 0.25, 0.25, 0.25;
    ( 1, 0, 1, 0, 0, 1, 0 ) 0.25, 0.25, 0.25, 0.25;
    ( 1, 0, 1, 0, 0, 1, 1 ) 0.25, 0.25, 0.25, 0.25;
    ( 1, 0, 1, 0, 0, 2, 0 ) 0.25, 0.25, 0.25, 0.25;
    ( 1, 0, 1, 0, 0, 2, 1 ) 0.25, 0.25, 0.25, 0.25;
    ( 1, 0, 1, 0, 0, 3, 0 ) 0.25, 0.25, 0.25, 0.25;
    ( 1, 0, 1, 0, 0, 3, 1 ) 0.25, 0.25, 0.25, 0.25;
    ( 1, 0, 1, 0, 0, 4, 0 ) 0.25, 0.25, 0.25, 0.25;
    ( 1, 0, 1, 0, 0, 4, 1 ) 0.25, 0.25, 0.25, 0.25;
    ( 1, 0, 1, 0, 0, 5, 0 ) 0.25, 0.25, 0.25, 0.25;
    ( 1, 0, 1, 0, 0, 5, 1 ) 0.25, 0.25, 0.25, 0.25;
    ( 1, 0, 1, 0, 1, 0, 0 ) 0.25, 0.25, 0.25, 0.25;
    ( 1, 0, 1, 0, 1, 0, 1 ) 0.25, 0.25, 0.25, 0.25;
    ( 1, 0, 1, 0, 1, 1, 0 ) 0.25, 0.25, 0.25, 0.25;
    ( 1, 0, 1, 0, 1, 1, 1 ) 0.25, 0.25, 0.25, 0.25;
    ( 1, 0, 1, 0, 1, 2, 0 ) 0.25, 0.25, 0.25, 0.25;
    ( 1, 0, 1, 0, 1, 2, 1 ) 0.25, 0.25, 0.25, 0.25;
    ( 1, 0, 1, 0, 1, 3, 0 ) 0.25, 0.25, 0.25, 0.25;
    ( 1, 0, 1, 0, 1, 3, 1 ) 0.25, 0.25, 0.25, 0.25;
    ( 1, 0, 1, 0, 1, 4, 0 ) 0.25, 0.25, 0.25, 0.25;
    ( 1, 0, 1, 0, 1, 4, 1 ) 0.25, 0.25, 0.25, 0.25;
    ( 1, 0, 1, 0, 1, 5, 0 ) 0.25, 0.25, 0.25, 0.25;
    ( 1, 0, 1, 0, 1, 5, 1 ) 0.25, 0.25, 0.25, 0.25;
    ( 1, 0, 1, 0, 2, 0, 0 ) 0.0, 0.25418060200668896, 0.6989966555183946, 0.046822742474916385;
    ( 1, 0, 1, 0, 2, 0, 1 ) 0.25, 0.25, 0.25, 0.25;
    ( 1, 0, 1, 0, 2, 1, 0 ) 0.0, 0.4682203389830508, 0.527542372881356, 0.00423728813559322;
    ( 1, 0, 1, 0, 2, 1, 1 ) 0.25, 0.25, 0.25, 0.25;
    ( 1, 0, 1, 0, 2, 2, 0 ) 0.0, 1.0, 0.0, 0.0;
    ( 1, 0, 1, 0, 2, 2, 1 ) 0.25, 0.25, 0.25, 0.25;
    ( 1, 0, 1, 0, 2, 3, 0 ) 0.0, 1.0, 0.0, 0.0;
    ( 1, 0, 1, 0, 2, 3, 1 ) 0.25, 0.25, 0.25, 0.25;
    ( 1, 0, 1, 0, 2, 4, 0 ) 0.0, 0.7272727272727273, 0.2727272727272727, 0.0;
    ( 1, 0, 1, 0, 2, 4, 1 ) 0.25, 0.25, 0.25, 0.25;
    ( 1, 0, 1, 0, 2, 5, 0 ) 0.0, 0.6794871794871795, 0.32051282051282054, 0.0;
    ( 1, 0, 1, 0, 2, 5, 1 ) 0.25, 0.25, 0.25, 0.25;
    ( 1, 0, 1, 1, 0, 0, 0 ) 0.25, 0.25, 0.25, 0.25;
    ( 1, 0, 1, 1, 0, 0, 1 ) 0.25, 0.25, 0.25, 0.25;
    ( 1, 0, 1, 1, 0, 1, 0 ) 0.25, 0.25, 0.25, 0.25;
    ( 1, 0, 1, 1, 0, 1, 1 ) 0.25, 0.25, 0.25, 0.25;
    ( 1, 0, 1, 1, 0, 2, 0 ) 0.25, 0.25, 0.25, 0.25;
    ( 1, 0, 1, 1, 0, 2, 1 ) 0.25, 0.25, 0.25, 0.25;
    ( 1, 0, 1, 1, 0, 3, 0 ) 0.25, 0.25, 0.25, 0.25;
    ( 1, 0, 1, 1, 0, 3, 1 ) 0.25, 0.25, 0.25, 0.25;
    ( 1, 0, 1, 1, 0, 4, 0 ) 0.25, 0.25, 0.25, 0.25;
    ( 1, 0, 1, 1, 0, 4, 1 ) 0.25, 0.25, 0.25, 0.25;
    ( 1, 0, 1, 1, 0, 5, 0 ) 0.25, 0.25, 0.25, 0.25;
    ( 1, 0, 1, 1, 0, 5, 1 ) 0.25, 0.25, 0.25, 0.25;
    ( 1, 0, 1, 1, 1, 0, 0 ) 0.0, 0.0, 0.9375, 0.0625;
    ( 1, 0, 1, 1, 1, 0, 1 ) 0.25, 0.25, 0.25, 0.25;
    ( 1, 0, 1, 1, 1, 1, 0 ) 0.25, 0.25, 0.25, 0.25;
    ( 1, 0, 1, 1, 1, 1, 1 ) 0.25, 0.25, 0.25, 0.25;
    ( 1, 0, 1, 1, 1, 2, 0 ) 0.25, 0.25, 0.25, 0.25;
    ( 1, 0, 1, 1, 1, 2, 1 ) 0.25, 0.25, 0.25, 0.25;
    ( 1, 0, 1, 1, 1, 3, 0 ) 0.25, 0.25, 0.25, 0.25;
    ( 1, 0, 1, 1, 1, 3, 1 ) 0.25, 0.25, 0.25, 0.25;
    ( 1, 0, 1, 1, 1, 4, 0 ) 0.25, 0.25, 0.25, 0.25;
    ( 1, 0, 1, 1, 1, 4, 1 ) 0.25, 0.25, 0.25, 0.25;
    ( 1, 0, 1, 1, 1, 5, 0 ) 0.25, 0.25, 0.25, 0.25;
    ( 1, 0, 1, 1, 1, 5, 1 ) 0.25, 0.25, 0.25, 0.25;
    ( 1, 0, 1, 1, 2, 0, 0 ) 0.0, 0.20833333333333334, 0.7222222222222222, 0.06944444444444445;
    ( 1, 0, 1, 1, 2, 0, 1 ) 0.25, 0.25, 0.25, 0.25;
    ( 1, 0, 1, 1, 2, 1, 0 ) 0.0, 0.4588235294117647, 0.5388235294117647, 0.002352941176470588;
    ( 1, 0, 1, 1, 2, 1, 1 ) 0.0, 1.0, 0.0, 0.0;
    ( 1, 0, 1, 1, 2, 2, 0 ) 0.0, 0.75, 0.25, 0.0;
    ( 1, 0, 1, 1, 2, 2, 1 ) 0.25, 0.25, 0.25, 0.25;
    ( 1, 0, 1, 1, 2, 3, 0 ) 0.0, 0.9047619047619048, 0.09523809523809523, 0.0;
    ( 1, 0, 1, 1, 2, 3, 1 ) 0.25, 0.25, 0.25, 0.25;
    ( 1, 0, 1, 1, 2, 4, 0 ) 0.0, 0.8235294117647058, 0.17647058823529413, 0.0;
    ( 1, 0, 1, 1, 2, 4, 1 ) 0.25, 0.25, 0.25, 0.25;
    ( 1, 0, 1, 1, 2, 5, 0 ) 0.0, 0.5428571428571428, 0.45714285714285713, 0.0;
    ( 1, 0, 1, 1, 2, 5, 1 ) 0.25, 0.25, 0.25, 0.25;
    ( 1, 1, 0, 0, 0, 0, 0 ) 0.25, 0.25, 0.25, 0.25;
    ( 1, 1, 0, 0, 0, 0, 1 ) 0.25, 0.25, 0.25, 0.25;
    ( 1, 1, 0, 0, 0, 1, 0 ) 0.25, 0.25, 0.25, 0.25;
    ( 1, 1, 0, 0, 0, 1, 1 ) 0.25, 0.25, 0.25, 0.25;
    ( 1, 1, 0, 0, 0, 2, 0 ) 0.25, 0.25, 0.25, 0.25;
    ( 1, 1, 0, 0, 0, 2, 1 ) 0.25, 0.25, 0.25, 0.25;
    ( 1, 1, 0, 0, 0, 3, 0 ) 0.25, 0.25, 0.25, 0.25;
    ( 1, 1, 0, 0, 0, 3, 1 ) 0.25, 0.25, 0.25, 0.25;
    ( 1, 1, 0, 0, 0, 4, 0 ) 0.25, 0.25, 0.25, 0.25;
    ( 1, 1, 0, 0, 0, 4, 1 ) 0.25, 0.25, 0.25, 0.25;
    ( 1, 1, 0, 0, 0, 5, 0 ) 0.25, 0.25, 0.25, 0.25;
    ( 1, 1, 0, 0, 0, 5, 1 ) 0.25, 0.25, 0.25, 0.25;
    ( 1, 1, 0, 0, 1, 0, 0 ) 0.25, 0.25, 0.25, 0.25;
    ( 1, 1, 0, 0, 1, 0, 1 ) 0.25, 0.25, 0.25, 0.25;
    ( 1, 1, 0, 0, 1, 1, 0 ) 0.25, 0.25, 0.25, 0.25;
    ( 1, 1, 0, 0, 1, 1, 1 ) 0.25, 0.25, 0.25, 0.25;
    ( 1, 1, 0, 0, 1, 2, 0 ) 0.25, 0.25, 0.25, 0.25;
    ( 1, 1, 0, 0, 1, 2, 1 ) 0.25, 0.25, 0.25, 0.25;
    ( 1, 1, 0, 0, 1, 3, 0 ) 0.25, 0.25, 0.25, 0.25;
    ( 1, 1, 0, 0, 1, 3, 1 ) 0.25, 0.25, 0.25, 0.25;
    ( 1, 1, 0, 0, 1, 4, 0 ) 0.25, 0.25, 0.25, 0.25;
    ( 1, 1, 0, 0, 1, 4, 1 ) 0.25, 0.25, 0.25, 0.25;
    ( 1, 1, 0, 0, 1, 5, 0 ) 0.25, 0.25, 0.25, 0.25;
    ( 1, 1, 0, 0, 1, 5, 1 ) 0.25, 0.25, 0.25, 0.25;
    ( 1, 1, 0, 0, 2, 0, 0 ) 0.25, 0.25, 0.25, 0.25;
    ( 1, 1, 0, 0, 2, 0, 1 ) 0.0, 0.0, 1.0, 0.0;
    ( 1, 1, 0, 0, 2, 1, 0 ) 0.25, 0.25, 0.25, 0.25;
    ( 1, 1, 0, 0, 2, 1, 1 ) 0.25, 0.25, 0.25, 0.25;
    ( 1, 1, 0, 0, 2, 2, 0 ) 0.25, 0.25, 0.25, 0.25;
    ( 1, 1, 0, 0, 2, 2, 1 ) 0.25, 0.25, 0.25, 0.25;
    ( 1, 1, 0, 0, 2, 3, 0 ) 0.25, 0.25, 0.25, 0.25;
    ( 1, 1, 0, 0, 2, 3, 1 ) 0.25, 0.25, 0.25, 0.25;
    ( 1, 1, 0, 0, 2, 4, 0 ) 0.25, 0.25, 0.25, 0.25;
    ( 1, 1, 0, 0, 2, 4, 1 ) 0.25, 0.25, 0.25, 0.25;
    ( 1, 1, 0, 0, 2, 5, 0 ) 0.25, 0.25, 0.25, 0.25;
    ( 1, 1, 0, 0, 2, 5, 1 ) 0.25, 0.25, 0.25, 0.25;
    ( 1, 1, 0, 1, 0, 0, 0 ) 0.25, 0.25, 0.25, 0.25;
    ( 1, 1, 0, 1, 0, 0, 1 ) 0.25, 0.25, 0.25, 0.25;
    ( 1, 1, 0, 1, 0, 1, 0 ) 0.25, 0.25, 0.25, 0.25;
    ( 1, 1, 0, 1, 0, 1, 1 ) 0.25, 0.25, 0.25, 0.25;
    ( 1, 1, 0, 1, 0, 2, 0 ) 0.25, 0.25, 0.25, 0.25;
    ( 1, 1, 0, 1, 0, 2, 1 ) 0.25, 0.25, 0.25, 0.25;
    ( 1, 1, 0, 1, 0, 3, 0 ) 0.25, 0.25, 0.25, 0.25;
    ( 1, 1, 0, 1, 0, 3, 1 ) 0.25, 0.25, 0.25, 0.25;
    ( 1, 1, 0, 1, 0, 4, 0 ) 0.25, 0.25, 0.25, 0.25;
    ( 1, 1, 0, 1, 0, 4, 1 ) 0.25, 0.25, 0.25, 0.25;
    ( 1, 1, 0, 1, 0, 5, 0 ) 0.25, 0.25, 0.25, 0.25;
    ( 1, 1, 0, 1, 0, 5, 1 ) 0.25, 0.25, 0.25, 0.25;
    ( 1, 1, 0, 1, 1, 0, 0 ) 0.25, 0.25, 0.25, 0.25;
    ( 1, 1, 0, 1, 1, 0, 1 ) 0.25, 0.25, 0.25, 0.25;
    ( 1, 1, 0, 1, 1, 1, 0 ) 0.25, 0.25, 0.25, 0.25;
    ( 1, 1, 0, 1, 1, 1, 1 ) 0.25, 0.25, 0.25, 0.25;
    ( 1, 1, 0, 1, 1, 2, 0 ) 0.25, 0.25, 0.25, 0.25;
    ( 1, 1, 0, 1, 1, 2, 1 ) 0.25, 0.25, 0.25, 0.25;
    ( 1, 1, 0, 1, 1, 3, 0 ) 0.25, 0.25, 0.25, 0.25;
    ( 1, 1, 0, 1, 1, 3, 1 ) 0.25, 0.25, 0.25, 0.25;
    ( 1, 1, 0, 1, 1, 4, 0 ) 0.25, 0.25, 0.25, 0.25;
    ( 1, 1, 0, 1, 1, 4, 1 ) 0.25, 0.25, 0.25, 0.25;
    ( 1, 1, 0, 1, 1, 5, 0 ) 0.25, 0.25, 0.25, 0.25;
    ( 1, 1, 0, 1, 1, 5, 1 ) 0.25, 0.25, 0.25, 0.25;
    ( 1, 1, 0, 1, 2, 0, 0 ) 0.25, 0.25, 0.25, 0.25;
    ( 1, 1, 0, 1, 2, 0, 1 ) 0.0, 0.0, 0.6666666666666666, 0.3333333333333333;
    ( 1, 1, 0, 1, 2, 1, 0 ) 0.25, 0.25, 0.25, 0.25;
    ( 1, 1, 0, 1, 2, 1, 1 ) 0.25, 0.25, 0.25, 0.25;
    ( 1, 1, 0, 1, 2, 2, 0 ) 0.25, 0.25, 0.25, 0.25;
    ( 1, 1, 0, 1, 2, 2, 1 ) 0.25, 0.25, 0.25, 0.25;
    ( 1, 1, 0, 1, 2, 3, 0 ) 0.25, 0.25, 0.25, 0.25;
    ( 1, 1, 0, 1, 2, 3, 1 ) 0.25, 0.25, 0.25, 0.25;
    ( 1, 1, 0, 1, 2, 4, 0 ) 0.25, 0.25, 0.25, 0.25;
    ( 1, 1, 0, 1, 2, 4, 1 ) 0.25, 0.25, 0.25, 0.25;
    ( 1, 1, 0, 1, 2, 5, 0 ) 0.25, 0.25, 0.25, 0.25;
    ( 1, 1, 0, 1, 2, 5, 1 ) 0.25, 0.25, 0.25, 0.25;
    ( 1, 1, 1, 0, 0, 0, 0 ) 0.25, 0.25, 0.25, 0.25;
    ( 1, 1, 1, 0, 0, 0, 1 ) 0.0, 0.010638297872340425, 0.75, 0.2393617021276596;
    ( 1, 1, 1, 0, 0, 1, 0 ) 0.25, 0.25, 0.25, 0.25;
    ( 1, 1, 1, 0, 0, 1, 1 ) 0.25, 0.25, 0.25, 0.25;
    ( 1, 1, 1, 0, 0, 2, 0 ) 0.25, 0.25, 0.25, 0.25;
    ( 1, 1, 1, 0, 0, 2, 1 ) 0.25, 0.25, 0.25, 0.25;
    ( 1, 1, 1, 0, 0, 3, 0 ) 0.25, 0.25, 0.25, 0.25;
    ( 1, 1, 1, 0, 0, 3, 1 ) 0.25, 0.25, 0.25, 0.25;
    ( 1, 1, 1, 0, 0, 4, 0 ) 0.25, 0.25, 0.25, 0.25;
    ( 1, 1, 1, 0, 0, 4, 1 ) 0.25, 0.25, 0.25, 0.25;
    ( 1, 1, 1, 0, 0, 5, 0 ) 0.25, 0.25, 0.25, 0.25;
    ( 1, 1, 1, 0, 0, 5, 1 ) 0.25, 0.25, 0.25, 0.25;
    ( 1, 1, 1, 0, 1, 0, 0 ) 0.25, 0.25, 0.25, 0.25;
    ( 1, 1, 1, 0, 1, 0, 1 ) 0.25, 0.25, 0.25, 0.25;
    ( 1, 1, 1, 0, 1, 1, 0 ) 0.25, 0.25, 0.25, 0.25;
    ( 1, 1, 1, 0, 1, 1, 1 ) 0.25, 0.25, 0.25, 0.25;
    ( 1, 1, 1, 0, 1, 2, 0 ) 0.25, 0.25, 0.25, 0.25;
    ( 1, 1, 1, 0, 1, 2, 1 ) 0.25, 0.25, 0.25, 0.25;
    ( 1, 1, 1, 0, 1, 3, 0 ) 0.25, 0.25, 0.25, 0.25;
    ( 1, 1, 1, 0, 1, 3, 1 ) 0.25, 0.25, 0.25, 0.25;
    ( 1, 1, 1, 0, 1, 4, 0 ) 0.25, 0.25, 0.25, 0.25;
    ( 1, 1, 1, 0, 1, 4, 1 ) 0.25, 0.25, 0.25, 0.25;
    ( 1, 1, 1, 0, 1, 5, 0 ) 0.25, 0.25, 0.25, 0.25;
    ( 1, 1, 1, 0, 1, 5, 1 ) 0.25, 0.25, 0.25, 0.25;
    ( 1, 1, 1, 0, 2, 0, 0 ) 0.25, 0.25, 0.25, 0.25;
    ( 1, 1, 1, 0, 2, 0, 1 ) 0.0, 0.01340033500837521, 0.8350083752093802, 0.15159128978224456;
    ( 1, 1, 1, 0, 2, 1, 0 ) 0.25, 0.25, 0.25, 0.25;
    ( 1, 1, 1, 0, 2, 1, 1 ) 0.0, 0.043478260869565216, 0.8260869565217391, 0.13043478260869565;
    ( 1, 1, 1, 0, 2, 2, 0 ) 0.25, 0.25, 0.25, 0.25;
    ( 1, 1, 1, 0, 2, 2, 1 ) 0.25, 0.25, 0.25, 0.25;
    ( 1, 1, 1, 0, 2, 3, 0 ) 0.25, 0.25, 0.25, 0.25;
    ( 1, 1, 1, 0, 2, 3, 1 ) 0.25, 0.25, 0.25, 0.25;
    ( 1, 1, 1, 0, 2, 4, 0 ) 0.25, 0.25, 0.25, 0.25;
    ( 1, 1, 1, 0, 2, 4, 1 ) 0.25, 0.25, 0.25, 0.25;
    ( 1, 1, 1, 0, 2, 5, 0 ) 0.25, 0.25, 0.25, 0.25;
    ( 1, 1, 1, 0, 2, 5, 1 ) 0.25, 0.25, 0.25, 0.25;
    ( 1, 1, 1, 1, 0, 0, 0 ) 0.25, 0.25, 0.25, 0.25;
    ( 1, 1, 1, 1, 0, 0, 1 ) 0.25, 0.25, 0.25, 0.25;
    ( 1, 1, 1, 1, 0, 1, 0 ) 0.25, 0.25, 0.25, 0.25;
    ( 1, 1, 1, 1, 0, 1, 1 ) 0.25, 0.25, 0.25, 0.25;
    ( 1, 1, 1, 1, 0, 2, 0 ) 0.25, 0.25, 0.25, 0.25;
    ( 1, 1, 1, 1, 0, 2, 1 ) 0.25, 0.25, 0.25, 0.25;
    ( 1, 1, 1, 1, 0, 3, 0 ) 0.25, 0.25, 0.25, 0.25;
    ( 1, 1, 1, 1, 0, 3, 1 ) 0.25, 0.25, 0.25, 0.25;
    ( 1, 1, 1, 1, 0, 4, 0 ) 0.25, 0.25, 0.25, 0.25;
    ( 1, 1, 1, 1, 0, 4, 1 ) 0.25, 0.25, 0.25, 0.25;
    ( 1, 1, 1, 1, 0, 5, 0 ) 0.25, 0.25, 0.25, 0.25;
    ( 1, 1, 1, 1, 0, 5, 1 ) 0.25, 0.25, 0.25, 0.25;
    ( 1, 1, 1, 1, 1, 0, 0 ) 0.25, 0.25, 0.25, 0.25;
    ( 1, 1, 1, 1, 1, 0, 1 ) 0.0, 0.016129032258064516, 0.6774193548387096, 0.3064516129032258;
    ( 1, 1, 1, 1, 1, 1, 0 ) 0.25, 0.25, 0.25, 0.25;
    ( 1, 1, 1, 1, 1, 1, 1 ) 0.25, 0.25, 0.25, 0.25;
    ( 1, 1, 1, 1, 1, 2, 0 ) 0.25, 0.25, 0.25, 0.25;
    ( 1, 1, 1, 1, 1, 2, 1 ) 0.25, 0.25, 0.25, 0.25;
    ( 1, 1, 1, 1, 1, 3, 0 ) 0.25, 0.25, 0.25, 0.25;
    ( 1, 1, 1, 1, 1, 3, 1 ) 0.25, 0.25, 0.25, 0.25;
    ( 1, 1, 1, 1, 1, 4, 0 ) 0.25, 0.25, 0.25, 0.25;
    ( 1, 1, 1, 1, 1, 4, 1 ) 0.25, 0.25, 0.25, 0.25;
    ( 1, 1, 1, 1, 1, 5, 0 ) 0.25, 0.25, 0.25, 0.25;
    ( 1, 1, 1, 1, 1, 5, 1 ) 0.25, 0.25, 0.25, 0.25;
    ( 1, 1, 1, 1, 2, 0, 0 ) 0.25, 0.25, 0.25, 0.25;
    ( 1, 1, 1, 1, 2, 0, 1 ) 0.0, 0.023029229406554472, 0.812223206377325, 0.16474756421612047;
    ( 1, 1, 1, 1, 2, 1, 0 ) 0.25, 0.25, 0.25, 0.25;
    ( 1, 1, 1, 1, 2, 1, 1 ) 0.0, 0.047619047619047616, 0.7619047619047619, 0.19047619047619047;
    ( 1, 1, 1, 1, 2, 2, 0 ) 0.25, 0.25, 0.25, 0.25;
    ( 1, 1, 1, 1, 2, 2, 1 ) 0.25, 0.25, 0.25, 0.25;
    ( 1, 1, 1, 1, 2, 3, 0 ) 0.25, 0.25, 0.25, 0.25;
    ( 1, 1, 1, 1, 2, 3, 1 ) 0.25, 0.25, 0.25, 0.25;
    ( 1, 1, 1, 1, 2, 4, 0 ) 0.25, 0.25, 0.25, 0.25;
    ( 1, 1, 1, 1, 2, 4, 1 ) 0.25, 0.25, 0.25, 0.25;
    ( 1, 1, 1, 1, 2, 5, 0 ) 0.25, 0.25, 0.25, 0.25;
    ( 1, 1, 1, 1, 2, 5, 1 ) 0.25, 0.25, 0.25, 0.25;
    ( 1, 2, 0, 0, 0, 0, 0 ) 0.25, 0.25, 0.25, 0.25;
    ( 1, 2, 0, 0, 0, 0, 1 ) 0.25, 0.25, 0.25, 0.25;
    ( 1, 2, 0, 0, 0, 1, 0 ) 0.25, 0.25, 0.25, 0.25;
    ( 1, 2, 0, 0, 0, 1, 1 ) 0.25, 0.25, 0.25, 0.25;
    ( 1, 2, 0, 0, 0, 2, 0 ) 0.25, 0.25, 0.25, 0.25;
    ( 1, 2, 0, 0, 0, 2, 1 ) 0.25, 0.25, 0.25, 0.25;
    ( 1, 2, 0, 0, 0, 3, 0 ) 0.25, 0.25, 0.25, 0.25;
    ( 1, 2, 0, 0, 0, 3, 1 ) 0.25, 0.25, 0.25, 0.25;
    ( 1, 2, 0, 0, 0, 4, 0 ) 0.25, 0.25, 0.25, 0.25;
    ( 1, 2, 0, 0, 0, 4, 1 ) 0.25, 0.25, 0.25, 0.25;
    ( 1, 2, 0, 0, 0, 5, 0 ) 0.25, 0.25, 0.25, 0.25;
    ( 1, 2, 0, 0, 0, 5, 1 ) 0.25, 0.25, 0.25, 0.25;
    ( 1, 2, 0, 0, 1, 0, 0 ) 0.25, 0.25, 0.25, 0.25;
    ( 1, 2, 0, 0, 1, 0, 1 ) 0.25, 0.25, 0.25, 0.25;
    ( 1, 2, 0, 0, 1, 1, 0 ) 0.25, 0.25, 0.25, 0.25;
    ( 1, 2, 0, 0, 1, 1, 1 ) 0.25, 0.25, 0.25, 0.25;
    ( 1, 2, 0, 0, 1, 2, 0 ) 0.25, 0.25, 0.25, 0.25;
    ( 1, 2, 0, 0, 1, 2, 1 ) 0.25, 0.25, 0.25, 0.25;
    ( 1, 2, 0, 0, 1, 3, 0 ) 0.25, 0.25, 0.25, 0.25;
    ( 1, 2, 0, 0, 1, 3, 1 ) 0.25, 0.25, 0.25, 0.25;
    ( 1, 2, 0, 0, 1, 4, 0 ) 0.25, 0.25, 0.25, 0.25;
    ( 1, 2, 0, 0, 1, 4, 1 ) 0.25, 0.25, 0.25, 0.25;
    ( 1, 2, 0, 0, 1, 5, 0 ) 0.25, 0.25, 0.25, 0.25;
    ( 1, 2, 0, 0, 1, 5, 1 ) 0.25, 0.25, 0.25, 0.25;
    ( 1, 2, 0, 0, 2, 0, 0 ) 0.25, 0.25, 0.25, 0.25;
    ( 1, 2, 0, 0, 2, 0, 1 ) 0.25, 0.25, 0.25, 0.25;
    ( 1, 2, 0, 0, 2, 1, 0 ) 0.25, 0.25, 0.25, 0.25;
    ( 1, 2, 0, 0, 2, 1, 1 ) 0.25, 0.25, 0.25, 0.25;
    ( 1, 2, 0, 0, 2, 2, 0 ) 0.25, 0.25, 0.25, 0.25;
    ( 1, 2, 0, 0, 2, 2, 1 ) 0.25, 0.25, 0.25, 0.25;
    ( 1, 2, 0, 0, 2, 3, 0 ) 0.25, 0.25, 0.25, 0.25;
    ( 1, 2, 0, 0, 2, 3, 1 ) 0.25, 0.25, 0.25, 0.25;
    ( 1, 2, 0, 0, 2, 4, 0 ) 0.25, 0.25, 0.25, 0.25;
    ( 1, 2, 0, 0, 2, 4, 1 ) 0.25, 0.25, 0.25, 0.25;
    ( 1, 2, 0, 0, 2, 5, 0 ) 0.25, 0.25, 0.25, 0.25;
    ( 1, 2, 0, 0, 2, 5, 1 ) 0.25, 0.25, 0.25, 0.25;
    ( 1, 2, 0, 1, 0, 0, 0 ) 0.25, 0.25, 0.25, 0.25;
    ( 1, 2, 0, 1, 0, 0, 1 ) 0.25, 0.25, 0.25, 0.25;
    ( 1, 2, 0, 1, 0, 1, 0 ) 0.25, 0.25, 0.25, 0.25;
    ( 1, 2, 0, 1, 0, 1, 1 ) 0.25, 0.25, 0.25, 0.25;
    ( 1, 2, 0, 1, 0, 2, 0 ) 0.25, 0.25, 0.25, 0.25;
    ( 1, 2, 0, 1, 0, 2, 1 ) 0.25, 0.25, 0.25, 0.25;
    ( 1, 2, 0, 1, 0, 3, 0 ) 0.25, 0.25, 0.25, 0.25;
    ( 1, 2, 0, 1, 0, 3, 1 ) 0.25, 0.25, 0.25, 0.25;
    ( 1, 2, 0, 1, 0, 4, 0 ) 0.25, 0.25, 0.25, 0.25;
    ( 1, 2, 0, 1, 0, 4, 1 ) 0.25, 0.25, 0.25, 0.25;
    ( 1, 2, 0, 1, 0, 5, 0 ) 0.25, 0.25, 0.25, 0.25;
    ( 1, 2, 0, 1, 0, 5, 1 ) 0.25, 0.25, 0.25, 0.25;
    ( 1, 2, 0, 1, 1, 0, 0 ) 0.25, 0.25, 0.25, 0.25;
    ( 1, 2, 0, 1, 1, 0, 1 ) 0.25, 0.25, 0.25, 0.25;
    ( 1, 2, 0, 1, 1, 1, 0 ) 0.25, 0.25, 0.25, 0.25;
    ( 1, 2, 0, 1, 1, 1, 1 ) 0.25, 0.25, 0.25, 0.25;
    ( 1, 2, 0, 1, 1, 2, 0 ) 0.25, 0.25, 0.25, 0.25;
    ( 1, 2, 0, 1, 1, 2, 1 ) 0.25, 0.25, 0.25, 0.25;
    ( 1, 2, 0, 1, 1, 3, 0 ) 0.25, 0.25, 0.25, 0.25;
    ( 1, 2, 0, 1, 1, 3, 1 ) 0.25, 0.25, 0.25, 0.25;
    ( 1, 2, 0, 1, 1, 4, 0 ) 0.25, 0.25, 0.25, 0.25;
    ( 1, 2, 0, 1, 1, 4, 1 ) 0.25, 0.25, 0.25, 0.25;
    ( 1, 2, 0, 1, 1, 5, 0 ) 0.25, 0.25, 0.25, 0.25;
    ( 1, 2, 0, 1, 1, 5, 1 ) 0.25, 0.25, 0.25, 0.25;
    ( 1, 2, 0, 1, 2, 0, 0 ) 0.25, 0.25, 0.25, 0.25;
    ( 1, 2, 0, 1, 2, 0, 1 ) 0.25, 0.25, 0.25, 0.25;
    ( 1, 2, 0, 1, 2, 1, 0 ) 0.25, 0.25, 0.25, 0.25;
    ( 1, 2, 0, 1, 2, 1, 1 ) 0.25, 0.25, 0.25, 0.25;
    ( 1, 2, 0, 1, 2, 2, 0 ) 0.25, 0.25, 0.25, 0.25;
    ( 1, 2, 0, 1, 2, 2, 1 ) 0.25, 0.25, 0.25, 0.25;
    ( 1, 2, 0, 1, 2, 3, 0 ) 0.25, 0.25, 0.25, 0.25;
    ( 1, 2, 0, 1, 2, 3, 1 ) 0.25, 0.25, 0.25, 0.25;
    ( 1, 2, 0, 1, 2, 4, 0 ) 0.25, 0.25, 0.25, 0.25;
    ( 1, 2, 0, 1, 2, 4, 1 ) 0.25, 0.25, 0.25, 0.25;
    ( 1, 2, 0, 1, 2, 5, 0 ) 0.25, 0.25, 0.25, 0.25;
    ( 1, 2, 0, 1, 2, 5, 1 ) 0.25, 0.25, 0.25, 0.25;
    ( 1, 2, 1, 0, 0, 0, 0 ) 0.25, 0.25, 0.25, 0.25;
    ( 1, 2, 1, 0, 0, 0, 1 ) 0.25, 0.25, 0.25, 0.25;
    ( 1, 2, 1, 0, 0, 1, 0 ) 0.25, 0.25, 0.25, 0.25;
    ( 1, 2, 1, 0, 0, 1, 1 ) 0.25, 0.25, 0.25, 0.25;
    ( 1, 2, 1, 0, 0, 2, 0 ) 0.25, 0.25, 0.25, 0.25;
    ( 1, 2, 1, 0, 0, 2, 1 ) 0.25, 0.25, 0.25, 0.25;
    ( 1, 2, 1, 0, 0, 3, 0 ) 0.25, 0.25, 0.25, 0.25;
    ( 1, 2, 1, 0, 0, 3, 1 ) 0.25, 0.25, 0.25, 0.25;
    ( 1, 2, 1, 0, 0, 4, 0 ) 0.25, 0.25, 0.25, 0.25;
    ( 1, 2, 1, 0, 0, 4, 1 ) 0.25, 0.25, 0.25, 0.25;
    ( 1, 2, 1, 0, 0, 5, 0 ) 0.25, 0.25, 0.25, 0.25;
    ( 1, 2, 1, 0, 0, 5, 1 ) 0.25, 0.25, 0.25, 0.25;
    ( 1, 2, 1, 0, 1, 0, 0 ) 0.25, 0.25, 0.25, 0.25;
    ( 1, 2, 1, 0, 1, 0, 1 ) 0.25, 0.25, 0.25, 0.25;
    ( 1, 2, 1, 0, 1, 1, 0 ) 0.25, 0.25, 0.25, 0.25;
    ( 1, 2, 1, 0, 1, 1, 1 ) 0.25, 0.25, 0.25, 0.25;
    ( 1, 2, 1, 0, 1, 2, 0 ) 0.25, 0.25, 0.25, 0.25;
    ( 1, 2, 1, 0, 1, 2, 1 ) 0.25, 0.25, 0.25, 0.25;
    ( 1, 2, 1, 0, 1, 3, 0 ) 0.25, 0.25, 0.25, 0.25;
    ( 1, 2, 1, 0, 1, 3, 1 ) 0.25, 0.25, 0.25, 0.25;
    ( 1, 2, 1, 0, 1, 4, 0 ) 0.25, 0.25, 0.25, 0.25;
    ( 1, 2, 1, 0, 1, 4, 1 ) 0.25, 0.25, 0.25, 0.25;
    ( 1, 2, 1, 0, 1, 5, 0 ) 0.25, 0.25, 0.25, 0.25;
    ( 1, 2, 1, 0, 1, 5, 1 ) 0.25, 0.25, 0.25, 0.25;
    ( 1, 2, 1, 0, 2, 0, 0 ) 0.25, 0.25, 0.25, 0.25;
    ( 1, 2, 1, 0, 2, 0, 1 ) 0.25, 0.25, 0.25, 0.25;
    ( 1, 2, 1, 0, 2, 1, 0 ) 0.25, 0.25, 0.25, 0.25;
    ( 1, 2, 1, 0, 2, 1, 1 ) 0.25, 0.25, 0.25, 0.25;
    ( 1, 2, 1, 0, 2, 2, 0 ) 0.25, 0.25, 0.25, 0.25;
    ( 1, 2, 1, 0, 2, 2, 1 ) 0.25, 0.25, 0.25, 0.25;
    ( 1, 2, 1, 0, 2, 3, 0 ) 0.25, 0.25, 0.25, 0.25;
    ( 1, 2, 1, 0, 2, 3, 1 ) 0.25, 0.25, 0.25, 0.25;
    ( 1, 2, 1, 0, 2, 4, 0 ) 0.25, 0.25, 0.25, 0.25;
    ( 1, 2, 1, 0, 2, 4, 1 ) 0.25, 0.25, 0.25, 0.25;
    ( 1, 2, 1, 0, 2, 5, 0 ) 0.25, 0.25, 0.25, 0.25;
    ( 1, 2, 1, 0, 2, 5, 1 ) 0.25, 0.25, 0.25, 0.25;
    ( 1, 2, 1, 1, 0, 0, 0 ) 0.25, 0.25, 0.25, 0.25;
    ( 1, 2, 1, 1, 0, 0, 1 ) 0.25, 0.25, 0.25, 0.25;
    ( 1, 2, 1, 1, 0, 1, 0 ) 0.25, 0.25, 0.25, 0.25;
    ( 1, 2, 1, 1, 0, 1, 1 ) 0.25, 0.25, 0.25, 0.25;
    ( 1, 2, 1, 1, 0, 2, 0 ) 0.25, 0.25, 0.25, 0.25;
    ( 1, 2, 1, 1, 0, 2, 1 ) 0.25, 0.25, 0.25, 0.25;
    ( 1, 2, 1, 1, 0, 3, 0 ) 0.25, 0.25, 0.25, 0.25;
    ( 1, 2, 1, 1, 0, 3, 1 ) 0.25, 0.25, 0.25, 0.25;
    ( 1, 2, 1, 1, 0, 4, 0 ) 0.25, 0.25, 0.25, 0.25;
    ( 1, 2, 1, 1, 0, 4, 1 ) 0.25, 0.25, 0.25, 0.25;
    ( 1, 2, 1, 1, 0, 5, 0 ) 0.25, 0.25, 0.25, 0.25;
    ( 1, 2, 1, 1, 0, 5, 1 ) 0.25, 0.25, 0.25, 0.25;
    ( 1, 2, 1, 1, 1, 0, 0 ) 0.25, 0.25, 0.25, 0.25;
    ( 1, 2, 1, 1, 1, 0, 1 ) 0.25, 0.25, 0.25, 0.25;
    ( 1, 2, 1, 1, 1, 1, 0 ) 0.25, 0.25, 0.25, 0.25;
    ( 1, 2, 1, 1, 1, 1, 1 ) 0.25, 0.25, 0.25, 0.25;
    ( 1, 2, 1, 1, 1, 2, 0 ) 0.25, 0.25, 0.25, 0.25;
    ( 1, 2, 1, 1, 1, 2, 1 ) 0.25, 0.25, 0.25, 0.25;
    ( 1, 2, 1, 1, 1, 3, 0 ) 0.25, 0.25, 0.25, 0.25;
    ( 1, 2, 1, 1, 1, 3, 1 ) 0.25, 0.25, 0.25, 0.25;
    ( 1, 2, 1, 1, 1, 4, 0 ) 0.25, 0.25, 0.25, 0.25;
    ( 1, 2, 1, 1, 1, 4, 1 ) 0.25, 0.25, 0.25, 0.25;
    ( 1, 2, 1, 1, 1, 5, 0 ) 0.25, 0.25, 0.25, 0.25;
    ( 1, 2, 1, 1, 1, 5, 1 ) 0.25, 0.25, 0.25, 0.25;
    ( 1, 2, 1, 1, 2, 0, 0 ) 0.25, 0.25, 0.25, 0.25;
    ( 1, 2, 1, 1, 2, 0, 1 ) 0.25, 0.25, 0.25, 0.25;
    ( 1, 2, 1, 1, 2, 1, 0 ) 0.25, 0.25, 0.25, 0.25;
    ( 1, 2, 1, 1, 2, 1, 1 ) 0.25, 0.25, 0.25, 0.25;
    ( 1, 2, 1, 1, 2, 2, 0 ) 0.25, 0.25, 0.25, 0.25;
    ( 1, 2, 1, 1, 2, 2, 1 ) 0.25, 0.25, 0.25, 0.25;
    ( 1, 2, 1, 1, 2, 3, 0 ) 0.25, 0.25, 0.25, 0.25;
    ( 1, 2, 1, 1, 2, 3, 1 ) 0.25, 0.25, 0.25, 0.25;
    ( 1, 2, 1, 1, 2, 4, 0 ) 0.25, 0.25, 0.25, 0.25;
    ( 1, 2, 1, 1, 2, 4, 1 ) 0.25, 0.25, 0.25, 0.25;
    ( 1, 2, 1, 1, 2, 5, 0 ) 0.25, 0.25, 0.25, 0.25;
    ( 1, 2, 1, 1, 2, 5, 1 ) 0.25, 0.25, 0.25, 0.25;

}
